svm_type nu_svc
kernel_type rbf
gamma 0.00390625
nr_class 19
total_sv 2479
rho -0.0178755 0.382502 0.822743 0.608682 0.502145 0.299939 -0.281896 0.303158 0.291092 0.104407 0.491978 0.30734 -0.324131 0.793995 0.359923 0.493462 -0.127665 0.553128 0.355595 0.884646 0.501436 0.540005 0.228242 -0.299544 0.272873 0.354996 0.0583549 0.379806 0.358706 -0.220913 0.613728 0.457086 0.402093 -0.107535 0.433156 0.521127 0.161204 0.0885346 -0.144845 -0.677019 -0.175325 -0.136891 -0.273279 -0.0224876 -0.00443188 -0.604976 0.139251 -0.0705499 0.0740767 -0.481898 -0.114393 -0.400777 -0.503523 -0.762203 -1.04878 -0.725559 -0.639261 -0.808824 -0.691206 -0.542908 -1.18989 -0.414565 -0.526016 -0.760062 -1.07939 -0.64912 -0.114721 -0.263291 -0.70605 -0.377133 -0.19202 -0.438493 -0.03822 -0.0954966 -0.821638 0.0933146 -0.201846 -0.204307 -0.700675 -0.387124 -0.283437 -0.750501 -0.358207 -0.171004 -0.505319 -0.115655 -0.0567443 -0.939231 0.0389063 -0.103338 -0.044448 -0.710294 -0.3516 -0.486705 0.0177692 0.081729 -0.185481 0.131585 0.0914504 -0.492713 0.207517 0.0386512 0.112268 -0.298146 0.150553 0.539073 0.583232 0.244719 0.644452 0.47562 0.0336942 0.906191 0.575661 0.730626 0.258095 0.678151 -0.106703 -0.204508 0.157987 0.0473567 -0.626086 0.608209 -0.0549925 0.333289 -0.52437 0.303647 -0.204202 0.148516 0.171666 -0.595178 0.244893 -0.0594225 0.149586 -0.458287 -0.000615406 0.301908 0.231769 -0.232048 0.480115 0.15422 0.561823 -0.20331 0.250354 0.0101811 -0.820721 0.111494 -0.1262 0.145228 -0.587084 -0.136139 -0.505736 0.240038 -0.0809947 0.0907749 -0.522388 0.008877 1.0884 0.686574 0.910773 0.217889 0.730467 -0.595449 0.0625975 -0.950763 -0.0770855 0.427337 -0.595754 0.0547726 -0.886087 -0.324992 0.637067
label 50 102 120 110 52 53 109 121 98 54 101 56 55 119 99 100 112 51 103
nr_sv 118 128 120 186 123 136 126 123 134 127 119 117 126 139 121 132 138 137 129
SV
160.1605307749219 106.9766287205734 100.6096710453328 165.4606743789264 182.712566568289 0 0 201.3080716574075 0 144.2047738153563 213.4200384804974 156.7121967167176 148.7097949361142 108.4156666602046 166.130376553708 0 208.5298382009763 0 30:0.055556 46:0.055556 62:0.055556 83:0.055556 117:0.055556 124:0.055556 139:0.055556 167:0.055556 239:0.055556 291:0.055556 303:0.055556 305:0.055556 394:0.055556 408:0.055556 471:0.055556 490:0.055556 514:0.055556 552:0.055556 
160.1605307749219 142.6355049607645 100.6096710453328 165.4606743789264 182.712566568289 154.3864673174121 132.4267881174989 201.3080716574075 183.4863934511392 144.2047738153563 213.4200384804974 156.7121967167176 148.7097949361142 216.8313333204092 166.130376553708 202.3789626055489 208.5298382009763 235.5556553970572 46:0.047619 58:0.095238 71:0.095238 97:0.047619 117:0.047619 194:0.047619 210:0.095238 239:0.047619 271:0.047619 287:0.047619 291:0.047619 372:0.047619 433:0.047619 438:0.047619 439:0.047619 480:0.047619 584:0.047619 590:0.047619 
160.1605307749219 142.6355049607645 100.6096710453328 165.4606743789264 182.712566568289 154.3864673174121 132.4267881174989 201.3080716574075 183.4863934511392 144.2047738153563 213.4200384804974 156.7121967167176 148.7097949361142 216.8313333204092 166.130376553708 202.3789626055489 208.5298382009763 235.5556553970572 12:0.035714 27:0.071429 47:0.035714 48:0.035714 58:0.071429 96:0.035714 117:0.035714 142:0.035714 175:0.071429 183:0.035714 230:0.035714 244:0.035714 265:0.035714 287:0.035714 301:0.035714 360:0.071429 372:0.035714 394:0.035714 438:0.035714 481:0.035714 534:0.071429 551:0.035714 589:0.035714 
0 0 0 165.4606743789264 0 0 0 0 183.4863934511392 0 0 0 0 0 0 202.3789626055489 0 235.5556553970572 46:0.076923 117:0.076923 139:0.076923 194:0.076923 239:0.076923 265:0.076923 271:0.076923 287:0.076923 372:0.076923 394:0.076923 490:0.076923 584:0.076923 590:0.076923 
160.1605307749219 142.6355049607645 100.6096710453328 165.4606743789264 182.712566568289 154.3864673174121 132.4267881174989 201.3080716574075 183.4863934511392 144.2047738153563 213.4200384804974 156.7121967167176 148.7097949361142 216.8313333204092 166.130376553708 202.3789626055489 208.5298382009763 235.5556553970572 46:0.047619 58:0.095238 71:0.095238 97:0.047619 117:0.047619 194:0.047619 210:0.095238 239:0.047619 271:0.047619 287:0.047619 291:0.047619 372:0.047619 433:0.047619 438:0.047619 439:0.047619 480:0.047619 584:0.047619 590:0.047619 
160.1605307749219 142.6355049607645 100.6096710453328 165.4606743789264 182.712566568289 154.3864673174121 132.4267881174989 201.3080716574075 183.4863934511392 144.2047738153563 213.4200384804974 156.7121967167176 148.7097949361142 216.8313333204092 166.130376553708 202.3789626055489 208.5298382009763 235.5556553970572 12:0.033333 25:0.033333 27:0.066667 47:0.033333 48:0.033333 58:0.066667 108:0.033333 142:0.033333 175:0.066667 192:0.033333 211:0.033333 230:0.033333 280:0.033333 340:0.033333 360:0.066667 378:0.033333 392:0.066667 438:0.033333 451:0.033333 485:0.033333 512:0.033333 531:0.033333 534:0.066667 551:0.033333 
160.1605307749219 142.6355049607645 100.6096710453328 165.4606743789264 182.712566568289 154.3864673174121 132.4267881174989 201.3080716574075 183.4863934511392 144.2047738153563 213.4200384804974 156.7121967167176 148.7097949361142 216.8313333204092 166.130376553708 202.3789626055489 208.5298382009763 235.5556553970572 47:0.030303 50:0.030303 61:0.030303 131:0.030303 135:0.030303 140:0.030303 146:0.030303 239:0.030303 271:0.030303 291:0.030303 296:0.030303 315:0.030303 317:0.030303 359:0.030303 370:0.030303 372:0.030303 373:0.030303 413:0.030303 418:0.030303 429:0.030303 438:0.030303 439:0.030303 463:0.030303 497:0.030303 503:0.030303 505:0.030303 508:0.030303 520:0.030303 531:0.030303 552:0.030303 557:0.060606 561:0.030303 
160.1605307749219 142.6355049607645 100.6096710453328 165.4606743789264 182.712566568289 154.3864673174121 132.4267881174989 201.3080716574075 183.4863934511392 144.2047738153563 213.4200384804974 156.7121967167176 148.7097949361142 216.8313333204092 166.130376553708 202.3789626055489 208.5298382009763 235.5556553970572 83:0.043478 101:0.043478 131:0.043478 139:0.086957 234:0.043478 235:0.043478 239:0.043478 291:0.043478 315:0.043478 376:0.043478 413:0.043478 418:0.043478 448:0.043478 471:0.043478 493:0.043478 497:0.043478 503:0.043478 505:0.086957 508:0.043478 511:0.043478 557:0.043478 
160.1605307749219 142.6355049607645 100.6096710453328 165.4606743789264 182.712566568289 154.3864673174121 132.4267881174989 201.3080716574075 183.4863934511392 144.2047738153563 213.4200384804974 156.7121967167176 148.7097949361142 216.8313333204092 166.130376553708 202.3789626055489 208.5298382009763 235.5556553970572 21:0.035714 47:0.035714 61:0.035714 103:0.035714 109:0.035714 123:0.035714 128:0.035714 139:0.071429 149:0.035714 211:0.035714 239:0.035714 271:0.035714 272:0.035714 282:0.035714 284:0.035714 292:0.035714 355:0.035714 370:0.035714 372:0.035714 398:0.035714 408:0.035714 413:0.035714 479:0.035714 480:0.035714 497:0.035714 508:0.035714 530:0.035714 
0 0 100.6096710453328 82.7303371894632 0 0 0 0 183.4863934511392 0 0 156.7121967167176 0 0 166.130376553708 0 0 235.5556553970572 131:0.05 239:0.05 271:0.05 291:0.05 315:0.05 370:0.05 372:0.05 398:0.05 413:0.05 418:0.05 490:0.05 497:0.05 503:0.05 505:0.05 508:0.05 531:0.05 557:0.1 584:0.05 594:0.05 
160.1605307749219 142.6355049607645 100.6096710453328 165.4606743789264 182.712566568289 154.3864673174121 132.4267881174989 201.3080716574075 183.4863934511392 144.2047738153563 213.4200384804974 156.7121967167176 148.7097949361142 216.8313333204092 166.130376553708 202.3789626055489 208.5298382009763 235.5556553970572 22:0.055556 24:0.055556 30:0.055556 114:0.055556 119:0.055556 139:0.055556 249:0.055556 281:0.055556 286:0.055556 310:0.111111 362:0.055556 372:0.055556 394:0.055556 395:0.055556 406:0.055556 531:0.055556 535:0.055556 
160.1605307749219 142.6355049607645 100.6096710453328 165.4606743789264 182.712566568289 154.3864673174121 132.4267881174989 201.3080716574075 183.4863934511392 144.2047738153563 213.4200384804974 156.7121967167176 148.7097949361142 216.8313333204092 166.130376553708 202.3789626055489 208.5298382009763 235.5556553970572 42:0.037037 59:0.037037 61:0.037037 83:0.037037 113:0.037037 124:0.037037 139:0.037037 141:0.037037 167:0.037037 198:0.037037 208:0.037037 215:0.037037 239:0.037037 281:0.037037 328:0.037037 358:0.037037 398:0.037037 408:0.037037 441:0.037037 471:0.037037 477:0.037037 485:0.037037 503:0.037037 504:0.037037 555:0.037037 561:0.037037 584:0.037037 
160.1605307749219 142.6355049607645 100.6096710453328 165.4606743789264 182.712566568289 154.3864673174121 132.4267881174989 201.3080716574075 183.4863934511392 144.2047738153563 213.4200384804974 156.7121967167176 148.7097949361142 216.8313333204092 166.130376553708 202.3789626055489 208.5298382009763 235.5556553970572 31:0.035714 35:0.035714 63:0.035714 96:0.035714 117:0.035714 118:0.035714 156:0.035714 175:0.071429 183:0.035714 230:0.035714 244:0.035714 265:0.035714 282:0.035714 287:0.035714 302:0.071429 346:0.035714 372:0.035714 383:0.035714 403:0.035714 438:0.035714 463:0.035714 480:0.035714 481:0.035714 489:0.035714 491:0.035714 574:0.035714 
160.1605307749219 142.6355049607645 100.6096710453328 165.4606743789264 182.712566568289 154.3864673174121 132.4267881174989 201.3080716574075 183.4863934511392 144.2047738153563 213.4200384804974 156.7121967167176 148.7097949361142 216.8313333204092 166.130376553708 202.3789626055489 208.5298382009763 235.5556553970572 30:0.055556 31:0.055556 62:0.055556 83:0.055556 147:0.055556 176:0.055556 215:0.055556 235:0.055556 239:0.055556 286:0.055556 287:0.055556 349:0.055556 358:0.055556 408:0.055556 477:0.055556 497:0.055556 506:0.055556 514:0.055556 
0 0 100.6096710453328 0 0 0 0 201.3080716574075 0 0 0 156.7121967167176 148.7097949361142 216.8313333204092 0 0 0 0 83:0.052632 87:0.052632 131:0.052632 139:0.105263 234:0.052632 239:0.052632 250:0.052632 315:0.052632 370:0.052632 418:0.052632 471:0.052632 493:0.052632 497:0.052632 503:0.052632 505:0.105263 508:0.052632 557:0.052632 
160.1605307749219 142.6355049607645 100.6096710453328 165.4606743789264 182.712566568289 154.3864673174121 132.4267881174989 201.3080716574075 183.4863934511392 144.2047738153563 213.4200384804974 156.7121967167176 148.7097949361142 216.8313333204092 166.130376553708 202.3789626055489 208.5298382009763 235.5556553970572 24:0.041667 30:0.041667 83:0.041667 92:0.041667 128:0.041667 139:0.041667 271:0.041667 272:0.041667 303:0.041667 355:0.083333 370:0.041667 372:0.041667 402:0.041667 408:0.041667 413:0.041667 479:0.041667 490:0.041667 497:0.041667 503:0.041667 508:0.041667 514:0.041667 531:0.041667 568:0.041667 
160.1605307749219 142.6355049607645 100.6096710453328 165.4606743789264 182.712566568289 154.3864673174121 132.4267881174989 201.3080716574075 183.4863934511392 144.2047738153563 213.4200384804974 156.7121967167176 148.7097949361142 216.8313333204092 166.130376553708 202.3789626055489 208.5298382009763 235.5556553970572 46:0.04 71:0.08 124:0.04 128:0.04 194:0.04 217:0.08 277:0.04 287:0.04 296:0.04 317:0.04 347:0.04 358:0.04 388:0.04 408:0.04 438:0.04 457:0.04 490:0.04 531:0.04 534:0.08 551:0.04 555:0.04 561:0.04 
0 0 100.6096710453328 0 0 0 0 0 0 0 0 0 148.7097949361142 0 0 0 0 0 12:0.041667 27:0.083333 46:0.041667 47:0.041667 48:0.041667 58:0.083333 117:0.041667 139:0.041667 142:0.041667 175:0.083333 287:0.041667 301:0.041667 360:0.083333 394:0.041667 438:0.041667 480:0.041667 497:0.041667 531:0.041667 534:0.083333 
160.1605307749219 142.6355049607645 100.6096710453328 165.4606743789264 182.712566568289 154.3864673174121 132.4267881174989 201.3080716574075 183.4863934511392 144.2047738153563 213.4200384804974 156.7121967167176 148.7097949361142 216.8313333204092 166.130376553708 202.3789626055489 208.5298382009763 235.5556553970572 19:0.033333 58:0.066667 71:0.066667 97:0.033333 210:0.066667 239:0.033333 271:0.033333 315:0.033333 370:0.033333 372:0.033333 378:0.033333 398:0.033333 399:0.033333 408:0.033333 418:0.033333 442:0.033333 463:0.033333 471:0.033333 480:0.033333 492:0.033333 497:0.033333 503:0.033333 505:0.033333 531:0.033333 557:0.066667 584:0.033333 
160.1605307749219 142.6355049607645 100.6096710453328 165.4606743789264 182.712566568289 154.3864673174121 132.4267881174989 201.3080716574075 183.4863934511392 144.2047738153563 213.4200384804974 156.7121967167176 148.7097949361142 216.8313333204092 166.130376553708 202.3789626055489 208.5298382009763 235.5556553970572 25:0.03125 27:0.0625 47:0.03125 48:0.03125 65:0.03125 78:0.03125 93:0.03125 165:0.03125 186:0.03125 192:0.03125 211:0.03125 265:0.03125 274:0.03125 280:0.03125 340:0.03125 360:0.0625 378:0.03125 392:0.0625 394:0.03125 438:0.03125 485:0.03125 512:0.03125 520:0.03125 531:0.03125 534:0.0625 551:0.03125 555:0.03125 561:0.03125 
160.1605307749219 142.6355049607645 100.6096710453328 165.4606743789264 182.712566568289 154.3864673174121 132.4267881174989 201.3080716574075 183.4863934511392 144.2047738153563 213.4200384804974 156.7121967167176 148.7097949361142 216.8313333204092 166.130376553708 202.3789626055489 208.5298382009763 235.5556553970572 46:0.04 71:0.08 124:0.04 128:0.04 194:0.04 217:0.08 277:0.04 287:0.04 296:0.04 317:0.04 347:0.04 358:0.04 388:0.04 408:0.04 438:0.04 457:0.04 490:0.04 531:0.04 534:0.08 551:0.04 555:0.04 561:0.04 
160.1605307749219 142.6355049607645 100.6096710453328 165.4606743789264 182.712566568289 154.3864673174121 132.4267881174989 201.3080716574075 183.4863934511392 144.2047738153563 213.4200384804974 156.7121967167176 148.7097949361142 216.8313333204092 166.130376553708 202.3789626055489 208.5298382009763 235.5556553970572 24:0.05 83:0.05 131:0.05 234:0.05 239:0.05 291:0.05 303:0.05 315:0.05 370:0.05 384:0.05 413:0.05 471:0.05 490:0.05 497:0.05 503:0.05 508:0.05 514:0.05 554:0.05 555:0.05 557:0.05 
160.1605307749219 142.6355049607645 100.6096710453328 0 0 0 0 201.3080716574075 0 0 213.4200384804974 156.7121967167176 0 0 0 202.3789626055489 208.5298382009763 0 1:0.052632 27:0.105263 47:0.052632 48:0.052632 58:0.105263 93:0.052632 139:0.052632 360:0.105263 378:0.052632 394:0.052632 438:0.052632 480:0.052632 506:0.052632 512:0.052632 531:0.052632 561:0.052632 
0 0 100.6096710453328 165.4606743789264 0 154.3864673174121 132.4267881174989 0 183.4863934511392 0 213.4200384804974 156.7121967167176 148.7097949361142 216.8313333204092 166.130376553708 202.3789626055489 0 235.5556553970572 24:0.083333 139:0.083333 208:0.083333 239:0.083333 322:0.083333 358:0.083333 362:0.083333 394:0.083333 409:0.083333 485:0.083333 503:0.083333 531:0.083333 
0 142.6355049607645 100.6096710453328 0 0 0 132.4267881174989 0 0 144.2047738153563 0 0 148.7097949361142 0 0 0 208.5298382009763 235.5556553970572 27:0.105263 46:0.052632 47:0.052632 48:0.052632 65:0.052632 93:0.052632 117:0.052632 139:0.052632 186:0.052632 287:0.052632 301:0.052632 394:0.052632 438:0.052632 497:0.052632 531:0.052632 555:0.052632 561:0.052632 567:0.052632 
160.1605307749219 142.6355049607645 100.6096710453328 165.4606743789264 182.712566568289 154.3864673174121 132.4267881174989 201.3080716574075 183.4863934511392 144.2047738153563 213.4200384804974 156.7121967167176 148.7097949361142 216.8313333204092 166.130376553708 202.3789626055489 208.5298382009763 235.5556553970572 24:0.033333 48:0.033333 58:0.066667 114:0.033333 142:0.033333 156:0.066667 183:0.033333 192:0.033333 194:0.033333 198:0.033333 230:0.033333 265:0.033333 271:0.033333 280:0.033333 296:0.033333 340:0.033333 349:0.033333 392:0.066667 394:0.033333 438:0.033333 464:0.066667 485:0.033333 512:0.033333 541:0.033333 589:0.066667 
160.1605307749219 142.6355049607645 100.6096710453328 165.4606743789264 182.712566568289 154.3864673174121 132.4267881174989 201.3080716574075 183.4863934511392 144.2047738153563 213.4200384804974 156.7121967167176 148.7097949361142 216.8313333204092 166.130376553708 202.3789626055489 208.5298382009763 235.5556553970572 24:0.034483 83:0.034483 93:0.034483 120:0.034483 131:0.034483 135:0.034483 139:0.034483 140:0.034483 217:0.068966 234:0.034483 239:0.034483 291:0.034483 315:0.034483 317:0.034483 360:0.034483 370:0.034483 413:0.034483 429:0.034483 438:0.034483 464:0.068966 471:0.034483 497:0.034483 503:0.034483 505:0.034483 508:0.034483 557:0.034483 561:0.034483 
160.1605307749219 142.6355049607645 100.6096710453328 165.4606743789264 182.712566568289 154.3864673174121 132.4267881174989 201.3080716574075 183.4863934511392 144.2047738153563 213.4200384804974 156.7121967167176 148.7097949361142 216.8313333204092 166.130376553708 202.3789626055489 208.5298382009763 235.5556553970572 21:0.028571 30:0.028571 47:0.028571 50:0.028571 52:0.028571 61:0.028571 139:0.057143 149:0.028571 153:0.028571 165:0.028571 203:0.028571 257:0.028571 271:0.028571 272:0.028571 294:0.028571 325:0.028571 349:0.028571 370:0.028571 372:0.028571 398:0.028571 408:0.028571 413:0.028571 418:0.028571 457:0.028571 479:0.028571 490:0.028571 503:0.028571 508:0.028571 531:0.057143 535:0.028571 551:0.028571 557:0.057143 
0 0 100.6096710453328 0 0 0 0 0 0 0 0 0 0 0 0 0 0 0 12:0.041667 27:0.083333 46:0.041667 47:0.041667 48:0.041667 58:0.083333 117:0.041667 139:0.041667 142:0.041667 175:0.083333 287:0.041667 301:0.041667 360:0.083333 394:0.041667 438:0.041667 480:0.041667 497:0.041667 531:0.041667 534:0.083333 
160.1605307749219 142.6355049607645 100.6096710453328 165.4606743789264 182.712566568289 154.3864673174121 132.4267881174989 201.3080716574075 183.4863934511392 144.2047738153563 213.4200384804974 156.7121967167176 148.7097949361142 216.8313333204092 166.130376553708 202.3789626055489 208.5298382009763 235.5556553970572 46:0.04 71:0.08 124:0.04 128:0.04 194:0.04 217:0.08 277:0.04 287:0.04 296:0.04 317:0.04 347:0.04 358:0.04 388:0.04 408:0.04 438:0.04 457:0.04 490:0.04 531:0.04 534:0.08 551:0.04 555:0.04 561:0.04 
160.1605307749219 0 100.6096710453328 0 182.712566568289 0 0 0 0 0 0 0 111.5323462020857 0 166.130376553708 0 0 0 27:0.090909 46:0.045455 47:0.045455 48:0.045455 65:0.045455 93:0.045455 117:0.045455 139:0.045455 186:0.045455 301:0.045455 360:0.090909 394:0.045455 438:0.045455 497:0.045455 506:0.045455 531:0.045455 534:0.090909 555:0.045455 561:0.045455 
160.1605307749219 142.6355049607645 100.6096710453328 165.4606743789264 182.712566568289 154.3864673174121 132.4267881174989 201.3080716574075 183.4863934511392 144.2047738153563 213.4200384804974 156.7121967167176 148.7097949361142 216.8313333204092 166.130376553708 202.3789626055489 208.5298382009763 235.5556553970572 46:0.047619 58:0.095238 71:0.095238 97:0.047619 117:0.047619 194:0.047619 210:0.095238 239:0.047619 271:0.047619 287:0.047619 291:0.047619 372:0.047619 433:0.047619 438:0.047619 439:0.047619 480:0.047619 584:0.047619 590:0.047619 
160.1605307749219 142.6355049607645 100.6096710453328 165.4606743789264 182.712566568289 154.3864673174121 132.4267881174989 201.3080716574075 183.4863934511392 144.2047738153563 213.4200384804974 156.7121967167176 148.7097949361142 216.8313333204092 166.130376553708 202.3789626055489 208.5298382009763 235.5556553970572 12:0.033333 25:0.033333 27:0.066667 47:0.033333 48:0.033333 58:0.066667 108:0.033333 142:0.033333 175:0.066667 192:0.033333 211:0.033333 230:0.033333 280:0.033333 340:0.033333 360:0.066667 378:0.033333 392:0.066667 438:0.033333 451:0.033333 485:0.033333 512:0.033333 531:0.033333 534:0.066667 551:0.033333 
160.1605307749219 0 100.6096710453328 165.4606743789264 0 0 132.4267881174989 201.3080716574075 183.4863934511392 144.2047738153563 213.4200384804974 156.7121967167176 0 0 0 202.3789626055489 208.5298382009763 0 27:0.105263 31:0.052632 42:0.052632 139:0.052632 215:0.052632 235:0.052632 355:0.052632 358:0.052632 360:0.052632 398:0.052632 408:0.052632 477:0.052632 480:0.052632 497:0.052632 503:0.052632 506:0.052632 514:0.052632 555:0.052632 
160.1605307749219 142.6355049607645 100.6096710453328 165.4606743789264 182.712566568289 154.3864673174121 132.4267881174989 201.3080716574075 183.4863934511392 144.2047738153563 213.4200384804974 156.7121967167176 148.7097949361142 216.8313333204092 166.130376553708 202.3789626055489 208.5298382009763 235.5556553970572 27:0.074074 47:0.037037 48:0.037037 58:0.074074 96:0.037037 114:0.037037 117:0.037037 142:0.037037 183:0.037037 230:0.037037 244:0.037037 265:0.037037 287:0.037037 291:0.037037 301:0.037037 360:0.074074 372:0.037037 394:0.037037 438:0.037037 481:0.037037 485:0.037037 541:0.037037 551:0.037037 589:0.037037 
0 142.6355049607645 100.6096710453328 0 0 0 0 0 0 0 0 156.7121967167176 0 0 0 0 208.5298382009763 0 1:0.052632 27:0.105263 47:0.052632 48:0.052632 58:0.105263 93:0.052632 139:0.052632 360:0.105263 378:0.052632 394:0.052632 438:0.052632 480:0.052632 506:0.052632 512:0.052632 531:0.052632 561:0.052632 
0 0 0 0 0 0 0 0 0 0 0 156.7121967167176 0 0 0 0 0 0 46:0.066667 62:0.066667 83:0.066667 117:0.066667 124:0.066667 139:0.066667 167:0.066667 239:0.066667 291:0.066667 305:0.066667 394:0.066667 408:0.066667 471:0.066667 490:0.066667 552:0.066667 
0 0 100.6096710453328 0 0 0 0 0 0 0 0 0 0 216.8313333204092 0 0 0 0 46:0.071429 117:0.071429 139:0.071429 194:0.071429 239:0.071429 265:0.071429 271:0.071429 287:0.071429 291:0.071429 372:0.071429 394:0.071429 490:0.071429 584:0.071429 590:0.071429 
160.1605307749219 142.6355049607645 100.6096710453328 165.4606743789264 182.712566568289 154.3864673174121 132.4267881174989 201.3080716574075 183.4863934511392 144.2047738153563 213.4200384804974 156.7121967167176 148.7097949361142 216.8313333204092 166.130376553708 202.3789626055489 208.5298382009763 235.5556553970572 24:0.045455 46:0.045455 92:0.045455 124:0.045455 128:0.045455 139:0.045455 217:0.090909 243:0.045455 277:0.045455 303:0.045455 317:0.045455 355:0.090909 394:0.045455 408:0.045455 438:0.045455 490:0.045455 497:0.045455 503:0.045455 531:0.045455 568:0.045455 
160.1605307749219 142.6355049607645 100.6096710453328 165.4606743789264 182.712566568289 154.3864673174121 132.4267881174989 201.3080716574075 183.4863934511392 144.2047738153563 213.4200384804974 156.7121967167176 148.7097949361142 216.8313333204092 166.130376553708 202.3789626055489 208.5298382009763 235.5556553970572 139:0.058824 208:0.058824 211:0.058824 239:0.058824 290:0.058824 303:0.117647 322:0.058824 358:0.058824 362:0.058824 372:0.058824 394:0.058824 480:0.058824 485:0.058824 490:0.058824 531:0.058824 568:0.058824 
160.1605307749219 142.6355049607645 100.6096710453328 165.4606743789264 182.712566568289 154.3864673174121 132.4267881174989 201.3080716574075 183.4863934511392 144.2047738153563 213.4200384804974 39.17804917917941 148.7097949361142 216.8313333204092 166.130376553708 202.3789626055489 208.5298382009763 235.5556553970572 42:0.041667 59:0.041667 61:0.041667 83:0.041667 113:0.041667 124:0.041667 139:0.041667 141:0.041667 167:0.041667 198:0.041667 208:0.041667 215:0.041667 239:0.041667 281:0.041667 328:0.041667 358:0.041667 398:0.041667 408:0.041667 471:0.041667 477:0.041667 485:0.041667 555:0.041667 561:0.041667 584:0.041667 
160.1605307749219 142.6355049607645 100.6096710453328 165.4606743789264 182.712566568289 154.3864673174121 132.4267881174989 201.3080716574075 183.4863934511392 144.2047738153563 213.4200384804974 156.7121967167176 148.7097949361142 216.8313333204092 166.130376553708 202.3789626055489 208.5298382009763 235.5556553970572 46:0.030303 47:0.030303 58:0.030303 62:0.030303 68:0.030303 83:0.030303 103:0.060606 117:0.030303 124:0.030303 139:0.030303 140:0.030303 167:0.030303 194:0.030303 265:0.030303 287:0.030303 305:0.030303 317:0.030303 359:0.060606 394:0.030303 398:0.030303 408:0.030303 438:0.060606 445:0.030303 471:0.030303 477:0.030303 497:0.030303 520:0.060606 531:0.030303 561:0.030303 
0 0 100.6096710453328 0 0 0 0 0 0 0 0 156.7121967167176 0 0 0 0 0 0 46:0.058824 62:0.058824 83:0.058824 117:0.058824 124:0.058824 139:0.058824 167:0.058824 239:0.058824 291:0.058824 303:0.117647 305:0.058824 394:0.058824 408:0.058824 471:0.058824 490:0.058824 552:0.058824 
160.1605307749219 142.6355049607645 100.6096710453328 165.4606743789264 182.712566568289 154.3864673174121 132.4267881174989 201.3080716574075 183.4863934511392 144.2047738153563 213.4200384804974 156.7121967167176 148.7097949361142 216.8313333204092 166.130376553708 202.3789626055489 208.5298382009763 235.5556553970572 32:0.1 46:0.05 117:0.05 124:0.05 139:0.05 178:0.05 194:0.05 237:0.1 239:0.05 291:0.05 384:0.05 394:0.05 408:0.05 455:0.05 490:0.05 555:0.05 561:0.05 586:0.05 
160.1605307749219 142.6355049607645 100.6096710453328 165.4606743789264 182.712566568289 154.3864673174121 132.4267881174989 201.3080716574075 183.4863934511392 144.2047738153563 213.4200384804974 156.7121967167176 148.7097949361142 216.8313333204092 166.130376553708 202.3789626055489 208.5298382009763 235.5556553970572 24:0.035714 83:0.035714 93:0.035714 99:0.035714 120:0.035714 131:0.035714 135:0.035714 139:0.035714 140:0.035714 217:0.071429 234:0.035714 239:0.035714 291:0.035714 315:0.035714 370:0.035714 373:0.035714 413:0.035714 429:0.035714 464:0.071429 471:0.035714 497:0.035714 503:0.035714 505:0.035714 508:0.035714 557:0.035714 561:0.035714 
0 0 100.6096710453328 0 0 0 0 0 0 0 0 0 0 216.8313333204092 0 0 0 0 46:0.083333 48:0.083333 117:0.083333 139:0.083333 239:0.083333 265:0.083333 287:0.083333 291:0.083333 301:0.083333 394:0.083333 490:0.083333 561:0.083333 
160.1605307749219 142.6355049607645 100.6096710453328 165.4606743789264 182.712566568289 154.3864673174121 132.4267881174989 201.3080716574075 183.4863934511392 144.2047738153563 213.4200384804974 156.7121967167176 148.7097949361142 216.8313333204092 166.130376553708 202.3789626055489 208.5298382009763 235.5556553970572 83:0.041667 89:0.041667 101:0.041667 131:0.041667 136:0.041667 139:0.083333 224:0.041667 234:0.041667 239:0.041667 291:0.041667 315:0.041667 349:0.041667 370:0.041667 413:0.041667 418:0.041667 433:0.041667 471:0.041667 497:0.041667 503:0.041667 505:0.083333 508:0.041667 557:0.041667 
160.1605307749219 142.6355049607645 100.6096710453328 165.4606743789264 182.712566568289 154.3864673174121 132.4267881174989 201.3080716574075 183.4863934511392 144.2047738153563 213.4200384804974 0 148.7097949361142 216.8313333204092 166.130376553708 202.3789626055489 208.5298382009763 235.5556553970572 46:0.052632 61:0.052632 62:0.052632 117:0.052632 124:0.052632 139:0.052632 167:0.052632 194:0.052632 239:0.052632 290:0.052632 291:0.052632 384:0.052632 394:0.052632 408:0.052632 477:0.052632 490:0.052632 554:0.052632 555:0.052632 586:0.052632 
160.1605307749219 142.6355049607645 100.6096710453328 165.4606743789264 182.712566568289 154.3864673174121 132.4267881174989 201.3080716574075 183.4863934511392 144.2047738153563 213.4200384804974 156.7121967167176 148.7097949361142 216.8313333204092 166.130376553708 202.3789626055489 208.5298382009763 235.5556553970572 24:0.034483 83:0.034483 93:0.034483 120:0.034483 131:0.034483 135:0.034483 139:0.034483 140:0.034483 217:0.068966 234:0.034483 239:0.034483 291:0.034483 315:0.034483 317:0.034483 360:0.034483 370:0.034483 413:0.034483 429:0.034483 438:0.034483 464:0.068966 471:0.034483 497:0.034483 503:0.034483 505:0.034483 508:0.034483 557:0.034483 561:0.034483 
160.1605307749219 142.6355049607645 100.6096710453328 165.4606743789264 182.712566568289 154.3864673174121 132.4267881174989 201.3080716574075 183.4863934511392 144.2047738153563 213.4200384804974 156.7121967167176 148.7097949361142 216.8313333204092 166.130376553708 202.3789626055489 208.5298382009763 235.5556553970572 21:0.034483 24:0.034483 40:0.034483 47:0.034483 61:0.034483 109:0.034483 128:0.034483 139:0.068966 149:0.034483 271:0.034483 272:0.034483 303:0.034483 355:0.068966 370:0.034483 372:0.034483 398:0.034483 408:0.034483 413:0.034483 479:0.034483 490:0.034483 497:0.034483 503:0.034483 508:0.034483 511:0.034483 514:0.034483 531:0.034483 568:0.034483 
160.1605307749219 142.6355049607645 100.6096710453328 165.4606743789264 182.712566568289 154.3864673174121 132.4267881174989 201.3080716574075 183.4863934511392 144.2047738153563 213.4200384804974 156.7121967167176 148.7097949361142 216.8313333204092 166.130376553708 202.3789626055489 208.5298382009763 235.5556553970572 1:0.047619 30:0.047619 65:0.047619 93:0.047619 105:0.047619 108:0.047619 141:0.047619 181:0.047619 186:0.047619 271:0.047619 361:0.047619 362:0.047619 400:0.095238 480:0.095238 497:0.047619 506:0.047619 512:0.047619 552:0.047619 561:0.047619 
160.1605307749219 142.6355049607645 100.6096710453328 165.4606743789264 182.712566568289 154.3864673174121 132.4267881174989 201.3080716574075 183.4863934511392 144.2047738153563 213.4200384804974 156.7121967167176 148.7097949361142 216.8313333204092 166.130376553708 202.3789626055489 208.5298382009763 235.5556553970572 42:0.03125 113:0.03125 124:0.03125 135:0.03125 139:0.03125 141:0.03125 167:0.03125 198:0.03125 208:0.03125 215:0.03125 217:0.0625 239:0.03125 281:0.03125 317:0.03125 328:0.03125 358:0.03125 360:0.03125 373:0.03125 375:0.03125 384:0.03125 408:0.03125 433:0.03125 438:0.03125 439:0.03125 464:0.0625 477:0.03125 485:0.03125 503:0.03125 561:0.03125 586:0.03125 
160.1605307749219 142.6355049607645 100.6096710453328 165.4606743789264 182.712566568289 154.3864673174121 132.4267881174989 201.3080716574075 183.4863934511392 144.2047738153563 0 156.7121967167176 0 216.8313333204092 166.130376553708 202.3789626055489 208.5298382009763 235.5556553970572 24:0.034483 83:0.034483 93:0.034483 120:0.034483 131:0.034483 135:0.034483 139:0.034483 140:0.034483 217:0.068966 234:0.034483 239:0.034483 291:0.034483 315:0.034483 317:0.034483 360:0.034483 370:0.034483 413:0.034483 429:0.034483 438:0.034483 464:0.068966 471:0.034483 497:0.034483 503:0.034483 505:0.034483 508:0.034483 557:0.034483 561:0.034483 
160.1605307749219 142.6355049607645 100.6096710453328 165.4606743789264 182.712566568289 154.3864673174121 132.4267881174989 201.3080716574075 0 72.10238690767815 213.4200384804974 156.7121967167176 148.7097949361142 0 166.130376553708 202.3789626055489 208.5298382009763 235.5556553970572 46:0.030303 47:0.030303 58:0.030303 62:0.030303 68:0.030303 83:0.030303 103:0.060606 117:0.030303 124:0.030303 139:0.030303 140:0.030303 167:0.030303 194:0.030303 265:0.030303 287:0.030303 305:0.030303 317:0.030303 359:0.060606 394:0.030303 398:0.030303 408:0.030303 438:0.060606 445:0.030303 471:0.030303 477:0.030303 497:0.030303 520:0.060606 531:0.030303 561:0.030303 
160.1605307749219 142.6355049607645 100.6096710453328 165.4606743789264 182.712566568289 154.3864673174121 132.4267881174989 201.3080716574075 183.4863934511392 144.2047738153563 213.4200384804974 156.7121967167176 148.7097949361142 216.8313333204092 166.130376553708 202.3789626055489 208.5298382009763 235.5556553970572 24:0.035714 83:0.035714 93:0.035714 99:0.035714 120:0.035714 131:0.035714 135:0.035714 139:0.035714 140:0.035714 217:0.071429 234:0.035714 239:0.035714 291:0.035714 315:0.035714 370:0.035714 373:0.035714 413:0.035714 429:0.035714 464:0.071429 471:0.035714 497:0.035714 503:0.035714 505:0.035714 508:0.035714 557:0.035714 561:0.035714 
160.1605307749219 142.6355049607645 100.6096710453328 165.4606743789264 182.712566568289 154.3864673174121 132.4267881174989 201.3080716574075 183.4863934511392 144.2047738153563 213.4200384804974 156.7121967167176 148.7097949361142 216.8313333204092 166.130376553708 202.3789626055489 208.5298382009763 235.5556553970572 21:0.032258 24:0.032258 47:0.032258 61:0.032258 87:0.064516 109:0.032258 128:0.032258 139:0.064516 149:0.032258 271:0.032258 272:0.032258 299:0.032258 303:0.032258 336:0.032258 355:0.032258 370:0.032258 372:0.032258 398:0.032258 408:0.032258 413:0.032258 430:0.032258 458:0.032258 479:0.032258 493:0.032258 497:0.032258 503:0.032258 508:0.032258 514:0.032258 531:0.032258 
160.1605307749219 142.6355049607645 100.6096710453328 165.4606743789264 182.712566568289 154.3864673174121 132.4267881174989 201.3080716574075 183.4863934511392 144.2047738153563 213.4200384804974 156.7121967167176 148.7097949361142 216.8313333204092 166.130376553708 202.3789626055489 208.5298382009763 235.5556553970572 21:0.032258 24:0.032258 47:0.032258 61:0.032258 87:0.064516 109:0.032258 128:0.032258 139:0.064516 149:0.032258 271:0.032258 272:0.032258 299:0.032258 303:0.032258 336:0.032258 355:0.032258 370:0.032258 372:0.032258 398:0.032258 408:0.032258 413:0.032258 430:0.032258 458:0.032258 479:0.032258 493:0.032258 497:0.032258 503:0.032258 508:0.032258 514:0.032258 531:0.032258 
0 0 100.6096710453328 0 0 0 0 0 0 0 0 156.7121967167176 0 0 0 0 0 0 83:0.052632 87:0.052632 131:0.052632 139:0.105263 234:0.052632 239:0.052632 250:0.052632 315:0.052632 370:0.052632 418:0.052632 471:0.052632 493:0.052632 497:0.052632 503:0.052632 505:0.105263 508:0.052632 557:0.052632 
160.1605307749219 0 100.6096710453328 0 182.712566568289 0 0 0 0 0 0 0 0 0 0 0 208.5298382009763 0 27:0.086957 46:0.043478 47:0.043478 48:0.043478 65:0.043478 93:0.043478 117:0.043478 139:0.043478 186:0.043478 287:0.043478 301:0.043478 360:0.086957 394:0.043478 438:0.043478 480:0.043478 497:0.043478 531:0.043478 534:0.086957 555:0.043478 561:0.043478 
0 142.6355049607645 100.6096710453328 165.4606743789264 182.712566568289 154.3864673174121 132.4267881174989 201.3080716574075 183.4863934511392 144.2047738153563 213.4200384804974 0 148.7097949361142 216.8313333204092 166.130376553708 0 208.5298382009763 235.5556553970572 46:0.052632 61:0.052632 62:0.052632 117:0.052632 124:0.052632 139:0.052632 167:0.052632 194:0.052632 239:0.052632 290:0.052632 291:0.052632 384:0.052632 394:0.052632 408:0.052632 477:0.052632 490:0.052632 554:0.052632 555:0.052632 586:0.052632 
0 142.6355049607645 100.6096710453328 0 0 154.3864673174121 132.4267881174989 0 183.4863934511392 0 0 0 148.7097949361142 0 124.597782415281 202.3789626055489 0 235.5556553970572 12:0.05 27:0.1 46:0.05 47:0.05 48:0.05 58:0.1 117:0.05 139:0.05 142:0.05 175:0.1 287:0.05 301:0.05 394:0.05 438:0.05 497:0.05 531:0.05 567:0.05 
160.1605307749219 142.6355049607645 100.6096710453328 0 182.712566568289 154.3864673174121 132.4267881174989 201.3080716574075 183.4863934511392 144.2047738153563 213.4200384804974 0 148.7097949361142 0 166.130376553708 101.1894813027744 208.5298382009763 0 46:0.05 61:0.05 62:0.05 117:0.05 124:0.05 139:0.05 167:0.05 194:0.05 239:0.05 291:0.05 384:0.05 394:0.05 408:0.05 477:0.05 490:0.05 493:0.05 514:0.05 555:0.05 561:0.05 586:0.05 
160.1605307749219 142.6355049607645 100.6096710453328 165.4606743789264 182.712566568289 0 132.4267881174989 201.3080716574075 183.4863934511392 0 213.4200384804974 156.7121967167176 148.7097949361142 216.8313333204092 166.130376553708 202.3789626055489 208.5298382009763 235.5556553970572 46:0.047619 58:0.095238 71:0.095238 97:0.047619 117:0.047619 194:0.047619 210:0.095238 239:0.047619 271:0.047619 287:0.047619 291:0.047619 372:0.047619 433:0.047619 438:0.047619 439:0.047619 480:0.047619 584:0.047619 590:0.047619 
160.1605307749219 142.6355049607645 100.6096710453328 165.4606743789264 182.712566568289 154.3864673174121 132.4267881174989 201.3080716574075 183.4863934511392 144.2047738153563 213.4200384804974 156.7121967167176 148.7097949361142 216.8313333204092 166.130376553708 202.3789626055489 208.5298382009763 235.5556553970572 27:0.074074 47:0.037037 48:0.037037 58:0.074074 96:0.037037 114:0.037037 117:0.037037 142:0.037037 183:0.037037 230:0.037037 244:0.037037 265:0.037037 287:0.037037 291:0.037037 301:0.037037 360:0.074074 372:0.037037 394:0.037037 438:0.037037 481:0.037037 485:0.037037 541:0.037037 551:0.037037 589:0.037037 
160.1605307749219 142.6355049607645 100.6096710453328 165.4606743789264 182.712566568289 154.3864673174121 132.4267881174989 201.3080716574075 183.4863934511392 144.2047738153563 213.4200384804974 156.7121967167176 148.7097949361142 216.8313333204092 166.130376553708 202.3789626055489 208.5298382009763 235.5556553970572 25:0.037037 27:0.074074 47:0.037037 48:0.037037 108:0.037037 192:0.037037 211:0.037037 230:0.037037 280:0.037037 340:0.037037 360:0.074074 378:0.037037 392:0.074074 424:0.037037 426:0.037037 438:0.037037 451:0.037037 485:0.037037 512:0.037037 531:0.037037 534:0.074074 551:0.037037 561:0.037037 
160.1605307749219 142.6355049607645 100.6096710453328 165.4606743789264 182.712566568289 154.3864673174121 132.4267881174989 201.3080716574075 183.4863934511392 144.2047738153563 213.4200384804974 156.7121967167176 148.7097949361142 216.8313333204092 166.130376553708 202.3789626055489 208.5298382009763 235.5556553970572 30:0.0625 31:0.0625 59:0.0625 62:0.0625 83:0.0625 176:0.0625 215:0.0625 235:0.0625 239:0.0625 287:0.0625 303:0.0625 358:0.0625 408:0.0625 477:0.0625 497:0.0625 506:0.0625 
160.1605307749219 142.6355049607645 100.6096710453328 165.4606743789264 182.712566568289 154.3864673174121 132.4267881174989 201.3080716574075 183.4863934511392 144.2047738153563 213.4200384804974 156.7121967167176 148.7097949361142 216.8313333204092 166.130376553708 202.3789626055489 208.5298382009763 235.5556553970572 31:0.038462 59:0.038462 62:0.038462 71:0.076923 83:0.038462 113:0.038462 141:0.038462 164:0.038462 176:0.038462 215:0.038462 217:0.076923 219:0.038462 287:0.038462 313:0.038462 317:0.038462 375:0.038462 438:0.038462 477:0.038462 497:0.038462 534:0.076923 550:0.038462 561:0.038462 594:0.038462 
0 142.6355049607645 100.6096710453328 165.4606743789264 182.712566568289 38.59661682935302 66.21339405874947 50.32701791435188 0 0 0 156.7121967167176 148.7097949361142 0 166.130376553708 202.3789626055489 208.5298382009763 0 131:0.05 239:0.05 271:0.05 296:0.05 315:0.05 370:0.05 372:0.05 398:0.05 413:0.05 418:0.05 493:0.05 497:0.05 503:0.05 505:0.05 508:0.05 531:0.05 557:0.1 584:0.05 594:0.05 
160.1605307749219 142.6355049607645 100.6096710453328 165.4606743789264 182.712566568289 154.3864673174121 132.4267881174989 201.3080716574075 183.4863934511392 144.2047738153563 213.4200384804974 156.7121967167176 148.7097949361142 216.8313333204092 166.130376553708 202.3789626055489 208.5298382009763 235.5556553970572 8:0.03125 47:0.03125 52:0.03125 94:0.03125 103:0.03125 165:0.03125 176:0.03125 203:0.03125 257:0.03125 259:0.03125 271:0.03125 313:0.03125 317:0.03125 370:0.03125 372:0.03125 378:0.03125 398:0.03125 408:0.03125 418:0.03125 438:0.03125 442:0.03125 471:0.03125 490:0.03125 497:0.03125 503:0.03125 520:0.03125 531:0.03125 552:0.03125 557:0.0625 594:0.0625 
160.1605307749219 142.6355049607645 100.6096710453328 165.4606743789264 182.712566568289 154.3864673174121 132.4267881174989 201.3080716574075 183.4863934511392 144.2047738153563 160.0650288603731 156.7121967167176 148.7097949361142 216.8313333204092 166.130376553708 202.3789626055489 208.5298382009763 235.5556553970572 42:0.037037 61:0.037037 83:0.037037 113:0.037037 124:0.037037 139:0.037037 141:0.037037 167:0.037037 198:0.037037 208:0.037037 215:0.037037 239:0.037037 281:0.037037 328:0.037037 358:0.037037 398:0.037037 408:0.037037 441:0.037037 444:0.037037 471:0.037037 477:0.037037 485:0.037037 490:0.037037 503:0.037037 555:0.037037 561:0.037037 584:0.037037 
0 142.6355049607645 100.6096710453328 0 0 154.3864673174121 0 201.3080716574075 0 0 213.4200384804974 0 148.7097949361142 0 166.130376553708 202.3789626055489 0 0 139:0.076923 208:0.076923 211:0.076923 239:0.076923 322:0.076923 358:0.076923 362:0.076923 372:0.076923 394:0.076923 458:0.076923 480:0.076923 485:0.076923 531:0.076923 
160.1605307749219 142.6355049607645 100.6096710453328 165.4606743789264 182.712566568289 154.3864673174121 132.4267881174989 201.3080716574075 183.4863934511392 144.2047738153563 213.4200384804974 156.7121967167176 148.7097949361142 216.8313333204092 166.130376553708 202.3789626055489 208.5298382009763 235.5556553970572 46:0.034483 47:0.068966 58:0.034483 62:0.034483 83:0.034483 103:0.034483 108:0.034483 117:0.034483 124:0.034483 140:0.034483 194:0.034483 305:0.034483 359:0.068966 373:0.034483 398:0.034483 408:0.034483 433:0.034483 438:0.034483 445:0.034483 448:0.034483 471:0.034483 497:0.034483 520:0.068966 531:0.034483 567:0.034483 568:0.034483 
160.1605307749219 142.6355049607645 100.6096710453328 165.4606743789264 182.712566568289 154.3864673174121 132.4267881174989 201.3080716574075 183.4863934511392 144.2047738153563 213.4200384804974 156.7121967167176 148.7097949361142 216.8313333204092 166.130376553708 202.3789626055489 208.5298382009763 235.5556553970572 42:0.037037 61:0.037037 83:0.037037 113:0.037037 124:0.037037 139:0.037037 141:0.037037 167:0.037037 198:0.037037 208:0.037037 215:0.037037 239:0.037037 281:0.037037 328:0.037037 358:0.037037 398:0.037037 408:0.037037 441:0.037037 444:0.037037 471:0.037037 477:0.037037 485:0.037037 490:0.037037 503:0.037037 555:0.037037 561:0.037037 584:0.037037 
0 0 100.6096710453328 0 0 0 0 0 0 0 0 0 0 0 0 0 0 0 27:0.105263 46:0.052632 47:0.052632 117:0.052632 128:0.052632 139:0.052632 287:0.052632 296:0.052632 358:0.052632 360:0.052632 398:0.052632 408:0.052632 438:0.052632 457:0.052632 490:0.052632 531:0.052632 551:0.052632 555:0.052632 
80.08026538746093 0 100.6096710453328 165.4606743789264 0 154.3864673174121 0 0 183.4863934511392 144.2047738153563 0 0 0 0 0 0 0 0 19:0.033333 58:0.066667 71:0.066667 97:0.033333 210:0.066667 239:0.033333 271:0.033333 315:0.033333 370:0.033333 372:0.033333 378:0.033333 398:0.033333 399:0.033333 408:0.033333 418:0.033333 442:0.033333 463:0.033333 471:0.033333 480:0.033333 492:0.033333 497:0.033333 503:0.033333 505:0.033333 531:0.033333 557:0.066667 584:0.033333 
160.1605307749219 0 100.6096710453328 165.4606743789264 182.712566568289 154.3864673174121 0 201.3080716574075 183.4863934511392 144.2047738153563 0 156.7121967167176 0 0 0 0 208.5298382009763 235.5556553970572 19:0.033333 58:0.066667 71:0.066667 97:0.033333 210:0.066667 239:0.033333 271:0.033333 315:0.033333 370:0.033333 372:0.033333 378:0.033333 398:0.033333 399:0.033333 408:0.033333 418:0.033333 442:0.033333 463:0.033333 471:0.033333 480:0.033333 492:0.033333 497:0.033333 503:0.033333 505:0.033333 531:0.033333 557:0.066667 584:0.033333 
0 0 100.6096710453328 165.4606743789264 91.3562832841445 154.3864673174121 132.4267881174989 201.3080716574075 0 144.2047738153563 213.4200384804974 0 148.7097949361142 0 0 0 0 0 131:0.041667 157:0.041667 235:0.041667 239:0.041667 271:0.041667 291:0.041667 315:0.041667 372:0.041667 398:0.041667 413:0.041667 418:0.041667 448:0.041667 463:0.041667 471:0.041667 490:0.041667 497:0.041667 503:0.041667 505:0.041667 508:0.041667 531:0.041667 557:0.083333 584:0.041667 590:0.041667 
0 0 100.6096710453328 0 0 0 132.4267881174989 0 0 0 0 156.7121967167176 0 0 0 0 0 0 46:0.047619 58:0.095238 71:0.095238 97:0.047619 117:0.047619 194:0.047619 210:0.095238 239:0.047619 271:0.047619 287:0.047619 291:0.047619 372:0.047619 433:0.047619 438:0.047619 439:0.047619 480:0.047619 584:0.047619 590:0.047619 
0 0 100.6096710453328 0 0 0 0 0 0 0 0 156.7121967167176 0 0 0 202.3789626055489 0 117.7778276985286 46:0.052632 50:0.052632 62:0.052632 83:0.052632 87:0.052632 117:0.052632 124:0.052632 139:0.052632 167:0.052632 239:0.052632 287:0.052632 290:0.052632 291:0.052632 305:0.052632 394:0.052632 408:0.052632 471:0.052632 490:0.052632 552:0.052632 
160.1605307749219 142.6355049607645 100.6096710453328 165.4606743789264 182.712566568289 154.3864673174121 132.4267881174989 201.3080716574075 183.4863934511392 144.2047738153563 213.4200384804974 156.7121967167176 148.7097949361142 216.8313333204092 166.130376553708 202.3789626055489 208.5298382009763 235.5556553970572 29:0.066667 31:0.066667 40:0.066667 62:0.066667 87:0.133333 215:0.066667 235:0.066667 239:0.066667 287:0.066667 358:0.066667 408:0.066667 477:0.066667 497:0.066667 506:0.066667 
0 0 100.6096710453328 165.4606743789264 182.712566568289 154.3864673174121 0 201.3080716574075 0 144.2047738153563 0 156.7121967167176 148.7097949361142 0 166.130376553708 0 0 0 24:0.076923 139:0.076923 208:0.076923 238:0.076923 239:0.076923 322:0.076923 358:0.076923 362:0.076923 394:0.076923 458:0.076923 485:0.076923 503:0.076923 531:0.076923 
0 0 100.6096710453328 0 0 0 0 0 0 0 0 0 0 0 0 0 0 0 58:0.071429 71:0.071429 97:0.035714 131:0.035714 210:0.071429 239:0.035714 271:0.035714 291:0.035714 315:0.035714 370:0.035714 372:0.035714 398:0.035714 413:0.035714 418:0.035714 439:0.035714 463:0.035714 480:0.035714 497:0.035714 503:0.035714 505:0.035714 508:0.035714 531:0.035714 557:0.071429 584:0.035714 
160.1605307749219 142.6355049607645 100.6096710453328 165.4606743789264 182.712566568289 154.3864673174121 132.4267881174989 201.3080716574075 183.4863934511392 144.2047738153563 213.4200384804974 156.7121967167176 148.7097949361142 216.8313333204092 166.130376553708 202.3789626055489 208.5298382009763 235.5556553970572 46:0.045455 47:0.045455 82:0.045455 103:0.045455 117:0.045455 139:0.045455 150:0.045455 287:0.045455 290:0.045455 301:0.045455 359:0.090909 391:0.045455 394:0.045455 398:0.045455 438:0.045455 445:0.045455 497:0.045455 520:0.090909 531:0.045455 561:0.045455 
0 0 100.6096710453328 0 0 0 0 0 0 0 0 0 0 0 0 0 0 0 131:0.05 239:0.05 271:0.05 291:0.05 315:0.05 370:0.05 372:0.05 398:0.05 413:0.05 418:0.05 490:0.05 497:0.05 503:0.05 505:0.05 508:0.05 531:0.05 557:0.1 584:0.05 594:0.05 
0 0 100.6096710453328 0 0 0 0 0 0 144.2047738153563 0 0 0 0 0 0 0 0 12:0.05 27:0.1 46:0.05 47:0.05 48:0.05 58:0.1 117:0.05 139:0.05 142:0.05 175:0.1 301:0.05 394:0.05 438:0.05 497:0.05 506:0.05 531:0.05 567:0.05 
160.1605307749219 142.6355049607645 100.6096710453328 165.4606743789264 182.712566568289 154.3864673174121 132.4267881174989 201.3080716574075 183.4863934511392 144.2047738153563 213.4200384804974 156.7121967167176 148.7097949361142 216.8313333204092 166.130376553708 202.3789626055489 208.5298382009763 235.5556553970572 47:0.030303 50:0.030303 61:0.030303 131:0.030303 135:0.030303 140:0.030303 146:0.030303 239:0.030303 271:0.030303 291:0.030303 296:0.030303 315:0.030303 317:0.030303 359:0.030303 370:0.030303 372:0.030303 373:0.030303 413:0.030303 418:0.030303 429:0.030303 438:0.030303 439:0.030303 463:0.030303 497:0.030303 503:0.030303 505:0.030303 508:0.030303 520:0.030303 531:0.030303 552:0.030303 557:0.060606 561:0.030303 
160.1605307749219 142.6355049607645 100.6096710453328 165.4606743789264 182.712566568289 154.3864673174121 132.4267881174989 201.3080716574075 183.4863934511392 144.2047738153563 213.4200384804974 156.7121967167176 148.7097949361142 216.8313333204092 166.130376553708 202.3789626055489 208.5298382009763 235.5556553970572 12:0.035714 25:0.035714 30:0.035714 63:0.035714 141:0.035714 142:0.035714 181:0.035714 183:0.035714 192:0.035714 194:0.035714 198:0.035714 230:0.035714 265:0.035714 271:0.035714 280:0.035714 349:0.035714 392:0.071429 400:0.142857 480:0.071429 485:0.035714 509:0.071429 512:0.035714 
160.1605307749219 142.6355049607645 100.6096710453328 165.4606743789264 182.712566568289 154.3864673174121 132.4267881174989 201.3080716574075 183.4863934511392 144.2047738153563 213.4200384804974 156.7121967167176 148.7097949361142 216.8313333204092 166.130376553708 202.3789626055489 208.5298382009763 235.5556553970572 25:0.034483 27:0.068966 47:0.034483 48:0.034483 65:0.034483 78:0.034483 93:0.034483 165:0.034483 186:0.034483 192:0.034483 211:0.034483 265:0.034483 274:0.034483 280:0.034483 340:0.034483 378:0.034483 392:0.068966 394:0.034483 438:0.034483 485:0.034483 512:0.034483 520:0.034483 531:0.034483 551:0.034483 555:0.034483 561:0.034483 567:0.034483 
160.1605307749219 142.6355049607645 100.6096710453328 165.4606743789264 182.712566568289 154.3864673174121 132.4267881174989 201.3080716574075 183.4863934511392 144.2047738153563 213.4200384804974 156.7121967167176 148.7097949361142 216.8313333204092 166.130376553708 202.3789626055489 208.5298382009763 235.5556553970572 42:0.04 59:0.04 61:0.04 83:0.04 111:0.04 113:0.04 124:0.04 139:0.04 141:0.04 167:0.04 198:0.04 208:0.04 239:0.04 263:0.04 281:0.04 328:0.04 358:0.04 369:0.04 376:0.04 398:0.04 408:0.04 477:0.04 485:0.04 555:0.04 584:0.04 
0 0 100.6096710453328 0 0 0 0 201.3080716574075 0 0 0 0 0 0 0 0 0 0 27:0.125 46:0.0625 47:0.0625 48:0.0625 117:0.0625 139:0.0625 185:0.0625 264:0.0625 287:0.0625 301:0.0625 394:0.0625 438:0.0625 475:0.0625 497:0.0625 531:0.0625 
160.1605307749219 142.6355049607645 100.6096710453328 165.4606743789264 182.712566568289 154.3864673174121 132.4267881174989 201.3080716574075 183.4863934511392 144.2047738153563 0 0 148.7097949361142 216.8313333204092 166.130376553708 202.3789626055489 208.5298382009763 235.5556553970572 42:0.041667 59:0.041667 61:0.041667 83:0.041667 113:0.041667 124:0.041667 139:0.041667 141:0.041667 167:0.041667 198:0.041667 208:0.041667 215:0.041667 239:0.041667 281:0.041667 328:0.041667 358:0.041667 398:0.041667 408:0.041667 471:0.041667 477:0.041667 485:0.041667 555:0.041667 561:0.041667 584:0.041667 
160.1605307749219 142.6355049607645 100.6096710453328 165.4606743789264 182.712566568289 154.3864673174121 132.4267881174989 201.3080716574075 183.4863934511392 144.2047738153563 213.4200384804974 156.7121967167176 148.7097949361142 216.8313333204092 166.130376553708 202.3789626055489 208.5298382009763 235.5556553970572 42:0.03125 113:0.03125 124:0.03125 135:0.03125 139:0.03125 141:0.03125 167:0.03125 198:0.03125 208:0.03125 215:0.03125 217:0.0625 239:0.03125 281:0.03125 317:0.03125 328:0.03125 358:0.03125 360:0.03125 373:0.03125 375:0.03125 384:0.03125 408:0.03125 433:0.03125 438:0.03125 439:0.03125 464:0.0625 477:0.03125 485:0.03125 503:0.03125 561:0.03125 586:0.03125 
0 0 100.6096710453328 0 0 0 0 0 0 0 0 0 0 0 0 202.3789626055489 0 0 131:0.05 239:0.05 271:0.05 296:0.05 315:0.05 370:0.05 372:0.05 398:0.05 413:0.05 418:0.05 493:0.05 497:0.05 503:0.05 505:0.05 508:0.05 531:0.05 557:0.1 584:0.05 594:0.05 
0 0 100.6096710453328 0 0 0 0 0 0 0 0 156.7121967167176 0 0 0 0 0 0 27:0.117647 46:0.058824 47:0.058824 117:0.058824 128:0.058824 139:0.058824 165:0.058824 264:0.058824 315:0.058824 360:0.058824 394:0.058824 408:0.058824 438:0.058824 457:0.058824 475:0.058824 561:0.058824 
160.1605307749219 142.6355049607645 100.6096710453328 165.4606743789264 182.712566568289 154.3864673174121 0 201.3080716574075 183.4863934511392 144.2047738153563 213.4200384804974 156.7121967167176 148.7097949361142 216.8313333204092 166.130376553708 202.3789626055489 208.5298382009763 235.5556553970572 19:0.033333 58:0.066667 71:0.066667 97:0.033333 210:0.066667 239:0.033333 271:0.033333 315:0.033333 370:0.033333 372:0.033333 378:0.033333 398:0.033333 399:0.033333 408:0.033333 418:0.033333 442:0.033333 463:0.033333 471:0.033333 480:0.033333 492:0.033333 497:0.033333 503:0.033333 505:0.033333 531:0.033333 557:0.066667 584:0.033333 
0 0 100.6096710453328 0 0 0 0 0 0 0 0 156.7121967167176 0 0 166.130376553708 0 0 0 24:0.041667 83:0.041667 120:0.041667 131:0.041667 139:0.041667 217:0.083333 234:0.041667 239:0.041667 291:0.041667 305:0.041667 315:0.041667 317:0.041667 360:0.041667 370:0.041667 413:0.041667 438:0.041667 471:0.041667 489:0.041667 497:0.041667 503:0.041667 505:0.041667 508:0.041667 557:0.041667 
0 0 100.6096710453328 0 0 0 0 0 0 0 0 0 0 0 0 0 0 0 27:0.066667 46:0.066667 59:0.066667 83:0.066667 117:0.066667 124:0.066667 139:0.066667 167:0.066667 291:0.066667 305:0.066667 394:0.066667 408:0.066667 471:0.066667 490:0.066667 552:0.066667 
0 0 100.6096710453328 0 0 0 0 0 0 0 0 0 0 0 0 0 0 0 27:0.066667 46:0.066667 59:0.066667 83:0.066667 117:0.066667 124:0.066667 139:0.066667 167:0.066667 291:0.066667 305:0.066667 394:0.066667 408:0.066667 471:0.066667 490:0.066667 552:0.066667 
160.1605307749219 142.6355049607645 100.6096710453328 0 0 0 132.4267881174989 0 0 0 0 156.7121967167176 0 0 0 0 0 0 46:0.047619 58:0.095238 71:0.095238 97:0.047619 117:0.047619 194:0.047619 210:0.095238 239:0.047619 271:0.047619 287:0.047619 291:0.047619 372:0.047619 433:0.047619 438:0.047619 439:0.047619 480:0.047619 584:0.047619 590:0.047619 
160.1605307749219 142.6355049607645 100.6096710453328 165.4606743789264 182.712566568289 154.3864673174121 132.4267881174989 201.3080716574075 183.4863934511392 144.2047738153563 213.4200384804974 156.7121967167176 148.7097949361142 216.8313333204092 166.130376553708 202.3789626055489 208.5298382009763 235.5556553970572 47:0.030303 50:0.030303 61:0.030303 131:0.030303 135:0.030303 140:0.030303 146:0.030303 239:0.030303 271:0.030303 291:0.030303 296:0.030303 315:0.030303 317:0.030303 359:0.030303 370:0.030303 372:0.030303 373:0.030303 413:0.030303 418:0.030303 429:0.030303 438:0.030303 439:0.030303 463:0.030303 497:0.030303 503:0.030303 505:0.030303 508:0.030303 520:0.030303 531:0.030303 552:0.030303 557:0.060606 561:0.030303 
160.1605307749219 142.6355049607645 100.6096710453328 165.4606743789264 182.712566568289 154.3864673174121 132.4267881174989 201.3080716574075 183.4863934511392 144.2047738153563 213.4200384804974 0 148.7097949361142 216.8313333204092 166.130376553708 202.3789626055489 208.5298382009763 235.5556553970572 42:0.041667 59:0.041667 61:0.041667 83:0.041667 113:0.041667 124:0.041667 139:0.041667 141:0.041667 167:0.041667 198:0.041667 208:0.041667 215:0.041667 239:0.041667 281:0.041667 328:0.041667 358:0.041667 398:0.041667 408:0.041667 471:0.041667 477:0.041667 485:0.041667 555:0.041667 561:0.041667 584:0.041667 
0 0 100.6096710453328 0 0 0 0 0 0 0 0 0 0 0 0 0 208.5298382009763 0 71:0.074074 131:0.037037 210:0.074074 239:0.037037 271:0.037037 291:0.037037 315:0.037037 370:0.037037 372:0.037037 375:0.037037 398:0.037037 413:0.037037 418:0.037037 480:0.037037 497:0.037037 503:0.037037 505:0.037037 508:0.037037 531:0.037037 555:0.037037 557:0.074074 561:0.037037 584:0.037037 594:0.037037 
0 0 100.6096710453328 0 0 0 0 0 0 0 0 0 0 0 0 0 0 0 50:0.038462 83:0.038462 117:0.038462 131:0.038462 139:0.076923 234:0.038462 239:0.038462 291:0.038462 315:0.038462 349:0.038462 370:0.038462 381:0.038462 408:0.038462 413:0.038462 418:0.038462 471:0.038462 490:0.038462 497:0.038462 503:0.038462 505:0.076923 508:0.038462 514:0.038462 535:0.038462 557:0.038462 
160.1605307749219 142.6355049607645 100.6096710453328 165.4606743789264 182.712566568289 154.3864673174121 132.4267881174989 201.3080716574075 183.4863934511392 144.2047738153563 213.4200384804974 0 148.7097949361142 216.8313333204092 166.130376553708 202.3789626055489 208.5298382009763 235.5556553970572 27:0.074074 47:0.037037 48:0.037037 58:0.074074 96:0.037037 114:0.037037 117:0.037037 142:0.037037 183:0.037037 230:0.037037 244:0.037037 265:0.037037 287:0.037037 291:0.037037 301:0.037037 360:0.074074 372:0.037037 394:0.037037 438:0.037037 481:0.037037 485:0.037037 541:0.037037 551:0.037037 589:0.037037 
0 0 100.6096710453328 0 182.712566568289 154.3864673174121 132.4267881174989 0 0 144.2047738153563 0 156.7121967167176 0 216.8313333204092 0 0 208.5298382009763 0 24:0.052632 83:0.052632 131:0.052632 234:0.052632 239:0.052632 290:0.052632 291:0.052632 315:0.052632 370:0.052632 384:0.052632 413:0.052632 471:0.052632 490:0.052632 497:0.052632 503:0.052632 508:0.052632 554:0.052632 555:0.052632 557:0.052632 
160.1605307749219 142.6355049607645 100.6096710453328 0 182.712566568289 0 132.4267881174989 0 183.4863934511392 0 0 156.7121967167176 0 0 0 0 0 0 50:0.041667 83:0.041667 131:0.041667 139:0.083333 147:0.041667 234:0.041667 239:0.041667 286:0.041667 291:0.041667 315:0.041667 349:0.083333 370:0.041667 408:0.041667 418:0.041667 471:0.041667 497:0.041667 503:0.041667 505:0.083333 508:0.041667 535:0.041667 557:0.041667 
160.1605307749219 142.6355049607645 100.6096710453328 165.4606743789264 182.712566568289 154.3864673174121 132.4267881174989 0 183.4863934511392 0 0 156.7121967167176 0 0 0 0 208.5298382009763 0 27:0.083333 46:0.041667 47:0.041667 117:0.041667 128:0.041667 139:0.041667 147:0.041667 165:0.041667 315:0.041667 359:0.041667 360:0.041667 373:0.041667 394:0.041667 398:0.041667 408:0.041667 429:0.041667 438:0.041667 457:0.041667 464:0.083333 534:0.083333 561:0.041667 
0 0 25.15241776133321 0 0 0 0 0 0 0 0 0 0 0 0 0 0 0 50:0.047619 83:0.047619 131:0.047619 139:0.095238 234:0.047619 239:0.047619 291:0.047619 315:0.047619 349:0.047619 370:0.047619 381:0.047619 418:0.047619 471:0.047619 497:0.047619 503:0.047619 505:0.095238 508:0.047619 535:0.047619 557:0.047619 
160.1605307749219 142.6355049607645 100.6096710453328 165.4606743789264 182.712566568289 154.3864673174121 132.4267881174989 201.3080716574075 183.4863934511392 144.2047738153563 213.4200384804974 156.7121967167176 148.7097949361142 216.8313333204092 166.130376553708 202.3789626055489 208.5298382009763 235.5556553970572 71:0.066667 83:0.033333 85:0.033333 128:0.033333 133:0.033333 147:0.033333 165:0.033333 235:0.033333 264:0.033333 271:0.033333 315:0.033333 359:0.033333 370:0.033333 372:0.033333 373:0.033333 375:0.033333 398:0.033333 402:0.033333 408:0.033333 413:0.033333 429:0.033333 464:0.066667 479:0.033333 497:0.033333 508:0.033333 534:0.066667 561:0.033333 
0 0 100.6096710453328 0 0 0 0 0 0 0 0 0 0 0 0 0 0 0 131:0.05 239:0.05 271:0.05 291:0.05 315:0.05 370:0.05 372:0.05 398:0.05 413:0.05 418:0.05 490:0.05 497:0.05 503:0.05 505:0.05 508:0.05 531:0.05 557:0.1 584:0.05 594:0.05 
160.1605307749219 142.6355049607645 100.6096710453328 165.4606743789264 182.712566568289 154.3864673174121 132.4267881174989 201.3080716574075 183.4863934511392 144.2047738153563 213.4200384804974 156.7121967167176 148.7097949361142 216.8313333204092 166.130376553708 202.3789626055489 208.5298382009763 235.5556553970572 47:0.030303 50:0.030303 61:0.030303 131:0.030303 135:0.030303 140:0.030303 146:0.030303 239:0.030303 271:0.030303 291:0.030303 296:0.030303 315:0.030303 317:0.030303 359:0.030303 370:0.030303 372:0.030303 373:0.030303 413:0.030303 418:0.030303 429:0.030303 438:0.030303 439:0.030303 463:0.030303 497:0.030303 503:0.030303 505:0.030303 508:0.030303 520:0.030303 531:0.030303 552:0.030303 557:0.060606 561:0.030303 
0 0 100.6096710453328 0 0 0 0 0 0 0 0 0 0 0 166.130376553708 0 0 0 46:0.047619 47:0.047619 117:0.047619 128:0.047619 139:0.047619 194:0.047619 239:0.047619 287:0.047619 317:0.047619 359:0.047619 408:0.047619 438:0.095238 457:0.047619 471:0.047619 490:0.047619 514:0.047619 520:0.095238 531:0.047619 551:0.047619 
0 142.6355049607645 100.6096710453328 165.4606743789264 182.712566568289 154.3864673174121 0 0 183.4863934511392 144.2047738153563 213.4200384804974 156.7121967167176 148.7097949361142 216.8313333204092 166.130376553708 0 208.5298382009763 235.5556553970572 27:0.090909 29:0.045455 31:0.045455 42:0.045455 139:0.045455 215:0.045455 235:0.045455 286:0.045455 355:0.045455 358:0.045455 360:0.045455 398:0.045455 408:0.045455 477:0.045455 480:0.045455 490:0.045455 497:0.045455 503:0.045455 506:0.045455 514:0.045455 555:0.045455 
0 0 100.6096710453328 0 0 0 0 0 0 0 0 0 0 0 0 0 0 0 58:0.071429 71:0.071429 97:0.035714 131:0.035714 210:0.071429 239:0.035714 271:0.035714 291:0.035714 315:0.035714 370:0.035714 372:0.035714 398:0.035714 413:0.035714 418:0.035714 439:0.035714 463:0.035714 480:0.035714 497:0.035714 503:0.035714 505:0.035714 508:0.035714 531:0.035714 557:0.071429 584:0.035714 
160.1605307749219 142.6355049607645 100.6096710453328 165.4606743789264 182.712566568289 154.3864673174121 132.4267881174989 201.3080716574075 183.4863934511392 144.2047738153563 213.4200384804974 156.7121967167176 148.7097949361142 216.8313333204092 166.130376553708 202.3789626055489 208.5298382009763 235.5556553970572 31:0.043478 47:0.043478 59:0.043478 62:0.043478 103:0.043478 176:0.043478 191:0.043478 213:0.043478 215:0.043478 235:0.043478 286:0.043478 287:0.043478 317:0.043478 408:0.043478 438:0.086957 471:0.043478 477:0.043478 497:0.043478 506:0.043478 520:0.086957 584:0.043478 
0 0 100.6096710453328 0 0 0 0 0 0 0 0 0 0 0 0 0 0 0 58:0.071429 71:0.071429 97:0.035714 131:0.035714 210:0.071429 239:0.035714 271:0.035714 291:0.035714 315:0.035714 370:0.035714 372:0.035714 398:0.035714 413:0.035714 418:0.035714 439:0.035714 463:0.035714 480:0.035714 497:0.035714 503:0.035714 505:0.035714 508:0.035714 531:0.035714 557:0.071429 584:0.035714 
0 0 100.6096710453328 0 0 0 0 0 0 0 0 0 0 0 0 0 0 0 50:0.038462 83:0.038462 117:0.038462 131:0.038462 139:0.076923 234:0.038462 239:0.038462 291:0.038462 315:0.038462 349:0.038462 370:0.038462 381:0.038462 408:0.038462 413:0.038462 418:0.038462 471:0.038462 490:0.038462 497:0.038462 503:0.038462 505:0.076923 508:0.038462 514:0.038462 535:0.038462 557:0.038462 
160.1605307749219 142.6355049607645 100.6096710453328 165.4606743789264 182.712566568289 154.3864673174121 132.4267881174989 201.3080716574075 183.4863934511392 144.2047738153563 213.4200384804974 156.7121967167176 148.7097949361142 216.8313333204092 166.130376553708 202.3789626055489 208.5298382009763 235.5556553970572 30:0.045455 35:0.045455 46:0.045455 63:0.045455 104:0.045455 117:0.045455 141:0.045455 142:0.045455 181:0.045455 265:0.045455 271:0.045455 287:0.045455 374:0.045455 400:0.181818 480:0.045455 497:0.045455 509:0.090909 531:0.045455 
-160.1605307749219 127.1434655753856 93.8551484589143 144.6333543825015 155.9173723841984 117.9017732122496 129.7549367069028 161.3496376724482 140.5244660356814 122.0167819097195 162.0634741239827 114.498166735766 128.6487796274854 163.3598114916116 153.3482258742665 180.5262888500598 167.6162768625179 162.8729419074247 11:0.041667 50:0.041667 103:0.041667 143:0.041667 163:0.041667 193:0.083333 256:0.041667 260:0.041667 311:0.041667 345:0.041667 385:0.083333 387:0.041667 388:0.041667 410:0.041667 419:0.041667 433:0.041667 439:0.041667 442:0.083333 480:0.041667 528:0.041667 595:0.041667 
-160.1605307749219 127.1434655753856 93.8551484589143 144.6333543825015 155.9173723841984 117.9017732122496 129.7549367069028 161.3496376724482 140.5244660356814 122.0167819097195 162.0634741239827 114.498166735766 128.6487796274854 163.3598114916116 153.3482258742665 180.5262888500598 167.6162768625179 162.8729419074247 11:0.034483 22:0.034483 40:0.068966 42:0.034483 96:0.034483 144:0.034483 146:0.034483 147:0.034483 154:0.034483 163:0.034483 165:0.034483 218:0.034483 222:0.034483 247:0.034483 267:0.034483 345:0.034483 349:0.034483 392:0.068966 396:0.034483 437:0.034483 443:0.034483 447:0.068966 471:0.034483 517:0.034483 561:0.034483 595:0.034483 
-160.1605307749219 127.1434655753856 93.8551484589143 144.6333543825015 155.9173723841984 117.9017732122496 129.7549367069028 161.3496376724482 140.5244660356814 122.0167819097195 162.0634741239827 114.498166735766 128.6487796274854 163.3598114916116 153.3482258742665 180.5262888500598 167.6162768625179 162.8729419074247 11:0.037037 22:0.037037 95:0.037037 111:0.037037 143:0.037037 180:0.037037 222:0.037037 256:0.037037 267:0.037037 359:0.037037 378:0.037037 396:0.037037 429:0.037037 433:0.037037 435:0.037037 444:0.037037 502:0.037037 517:0.037037 527:0.074074 541:0.037037 546:0.074074 561:0.037037 572:0.037037 592:0.037037 596:0.037037 
-160.1605307749219 127.1434655753856 93.8551484589143 144.6333543825015 155.9173723841984 117.9017732122496 129.7549367069028 161.3496376724482 140.5244660356814 122.0167819097195 162.0634741239827 114.498166735766 128.6487796274854 163.3598114916116 153.3482258742665 180.5262888500598 167.6162768625179 162.8729419074247 11:0.04 22:0.04 64:0.04 99:0.04 171:0.04 218:0.04 222:0.04 267:0.04 345:0.04 349:0.04 350:0.04 355:0.04 388:0.08 433:0.04 437:0.04 438:0.04 444:0.04 453:0.04 463:0.04 481:0.04 517:0.04 541:0.04 551:0.04 567:0.04 
-0 127.1434655753856 0 0 0 0 0 161.3496376724482 0 0 0 0 0 0 0 0 0 0 25:0.045455 111:0.045455 211:0.045455 222:0.045455 238:0.045455 256:0.045455 311:0.045455 325:0.045455 343:0.045455 368:0.090909 388:0.045455 396:0.045455 435:0.045455 480:0.045455 517:0.045455 528:0.045455 546:0.090909 561:0.045455 567:0.045455 595:0.045455 
-160.1605307749219 127.1434655753856 93.8551484589143 144.6333543825015 155.9173723841984 117.9017732122496 129.7549367069028 161.3496376724482 140.5244660356814 122.0167819097195 162.0634741239827 114.498166735766 128.6487796274854 163.3598114916116 153.3482258742665 180.5262888500598 167.6162768625179 162.8729419074247 65:0.05 140:0.05 186:0.05 211:0.05 222:0.05 238:0.1 256:0.05 374:0.05 375:0.05 388:0.05 426:0.05 455:0.05 480:0.05 495:0.05 506:0.05 512:0.05 517:0.05 561:0.05 596:0.05 
-160.1605307749219 127.1434655753856 93.8551484589143 144.6333543825015 155.9173723841984 117.9017732122496 129.7549367069028 161.3496376724482 140.5244660356814 122.0167819097195 162.0634741239827 114.498166735766 128.6487796274854 163.3598114916116 153.3482258742665 180.5262888500598 167.6162768625179 162.8729419074247 7:0.04 30:0.04 103:0.04 123:0.04 130:0.04 141:0.04 147:0.04 165:0.04 198:0.04 222:0.04 243:0.04 267:0.04 323:0.04 345:0.04 349:0.04 392:0.04 433:0.04 435:0.04 443:0.04 471:0.08 509:0.04 561:0.04 564:0.04 586:0.04 
-160.1605307749219 127.1434655753856 93.8551484589143 144.6333543825015 0 117.9017732122496 129.7549367069028 161.3496376724482 140.5244660356814 122.0167819097195 162.0634741239827 114.498166735766 128.6487796274854 163.3598114916116 153.3482258742665 180.5262888500598 167.6162768625179 162.8729419074247 11:0.052632 65:0.052632 130:0.052632 147:0.052632 186:0.052632 219:0.052632 222:0.052632 243:0.052632 311:0.052632 340:0.052632 345:0.052632 375:0.052632 378:0.052632 385:0.052632 388:0.052632 404:0.052632 480:0.052632 573:0.052632 595:0.052632 
-160.1605307749219 127.1434655753856 93.8551484589143 144.6333543825015 155.9173723841984 117.9017732122496 129.7549367069028 161.3496376724482 140.5244660356814 122.0167819097195 162.0634741239827 114.498166735766 128.6487796274854 163.3598114916116 153.3482258742665 180.5262888500598 167.6162768625179 162.8729419074247 15:0.052632 31:0.052632 193:0.105263 238:0.052632 260:0.052632 312:0.105263 345:0.052632 385:0.052632 387:0.052632 388:0.052632 396:0.052632 419:0.052632 426:0.052632 433:0.052632 442:0.105263 480:0.052632 
-160.1605307749219 127.1434655753856 93.8551484589143 144.6333543825015 155.9173723841984 117.9017732122496 129.7549367069028 161.3496376724482 140.5244660356814 122.0167819097195 162.0634741239827 114.498166735766 128.6487796274854 163.3598114916116 153.3482258742665 180.5262888500598 167.6162768625179 162.8729419074247 3:0.052632 11:0.052632 25:0.052632 50:0.052632 143:0.052632 256:0.052632 317:0.052632 373:0.052632 374:0.052632 388:0.052632 433:0.157895 439:0.105263 489:0.052632 517:0.052632 551:0.052632 575:0.052632 
-0 0 93.8551484589143 144.6333543825015 0 117.9017732122496 129.7549367069028 0 140.5244660356814 122.0167819097195 0 0 0 163.3598114916116 153.3482258742665 0 83.80813843125893 0 3:0.045455 11:0.045455 50:0.045455 104:0.045455 141:0.045455 219:0.045455 311:0.045455 317:0.045455 343:0.045455 373:0.045455 385:0.045455 388:0.045455 410:0.045455 433:0.136364 439:0.090909 517:0.045455 534:0.045455 551:0.045455 575:0.045455 
-160.1605307749219 127.1434655753856 93.8551484589143 144.6333543825015 155.9173723841984 117.9017732122496 129.7549367069028 161.3496376724482 140.5244660356814 122.0167819097195 162.0634741239827 114.498166735766 128.6487796274854 163.3598114916116 153.3482258742665 180.5262888500598 167.6162768625179 162.8729419074247 7:0.037037 30:0.037037 33:0.037037 103:0.037037 123:0.037037 130:0.037037 141:0.037037 147:0.037037 165:0.037037 198:0.037037 222:0.037037 243:0.037037 267:0.037037 323:0.037037 345:0.037037 349:0.037037 392:0.037037 420:0.037037 433:0.037037 443:0.037037 471:0.074074 509:0.037037 561:0.037037 564:0.037037 586:0.037037 592:0.037037 
-160.1605307749219 127.1434655753856 93.8551484589143 144.6333543825015 155.9173723841984 117.9017732122496 129.7549367069028 161.3496376724482 140.5244660356814 122.0167819097195 162.0634741239827 114.498166735766 128.6487796274854 163.3598114916116 153.3482258742665 180.5262888500598 167.6162768625179 162.8729419074247 8:0.038462 11:0.038462 22:0.038462 143:0.038462 147:0.038462 158:0.038462 175:0.076923 188:0.038462 218:0.038462 222:0.038462 256:0.038462 267:0.038462 311:0.038462 340:0.038462 345:0.038462 375:0.038462 388:0.038462 435:0.038462 517:0.038462 528:0.038462 541:0.038462 546:0.076923 561:0.038462 595:0.038462 
-0 0 93.8551484589143 144.6333543825015 155.9173723841984 117.9017732122496 129.7549367069028 161.3496376724482 140.5244660356814 122.0167819097195 162.0634741239827 85.87362505182448 128.6487796274854 163.3598114916116 153.3482258742665 180.5262888500598 167.6162768625179 162.8729419074247 50:0.047619 112:0.047619 193:0.095238 238:0.047619 260:0.047619 311:0.047619 312:0.095238 343:0.047619 345:0.047619 385:0.047619 387:0.047619 388:0.047619 396:0.047619 410:0.047619 419:0.047619 433:0.047619 480:0.047619 493:0.047619 540:0.047619 
-160.1605307749219 127.1434655753856 93.8551484589143 144.6333543825015 155.9173723841984 117.9017732122496 129.7549367069028 161.3496376724482 140.5244660356814 122.0167819097195 162.0634741239827 114.498166735766 128.6487796274854 163.3598114916116 153.3482258742665 180.5262888500598 167.6162768625179 162.8729419074247 7:0.052632 33:0.052632 104:0.052632 123:0.052632 141:0.052632 147:0.052632 222:0.052632 267:0.052632 311:0.052632 323:0.052632 340:0.052632 345:0.052632 388:0.052632 420:0.052632 471:0.052632 509:0.052632 561:0.052632 586:0.052632 592:0.052632 
-160.1605307749219 127.1434655753856 93.8551484589143 144.6333543825015 155.9173723841984 117.9017732122496 129.7549367069028 161.3496376724482 140.5244660356814 122.0167819097195 162.0634741239827 114.498166735766 128.6487796274854 163.3598114916116 153.3482258742665 180.5262888500598 167.6162768625179 162.8729419074247 12:0.032258 22:0.032258 30:0.032258 48:0.032258 99:0.032258 130:0.032258 147:0.032258 153:0.032258 165:0.032258 194:0.032258 198:0.032258 222:0.032258 247:0.032258 267:0.032258 325:0.032258 330:0.032258 345:0.032258 349:0.064516 392:0.064516 406:0.032258 414:0.032258 435:0.032258 443:0.032258 471:0.032258 500:0.032258 517:0.032258 535:0.032258 561:0.032258 564:0.032258 
-80.08026538746093 127.1434655753856 93.8551484589143 144.6333543825015 155.9173723841984 117.9017732122496 0 161.3496376724482 0 122.0167819097195 0 0 0 0 153.3482258742665 0 167.6162768625179 162.8729419074247 9:0.035714 11:0.035714 22:0.035714 97:0.035714 219:0.035714 238:0.035714 260:0.035714 311:0.035714 312:0.071429 345:0.035714 378:0.035714 385:0.035714 387:0.035714 388:0.035714 396:0.035714 419:0.035714 429:0.035714 433:0.035714 435:0.035714 442:0.035714 463:0.035714 480:0.035714 517:0.035714 528:0.035714 541:0.035714 558:0.035714 595:0.035714 
-160.1605307749219 127.1434655753856 93.8551484589143 144.6333543825015 155.9173723841984 117.9017732122496 129.7549367069028 161.3496376724482 140.5244660356814 122.0167819097195 162.0634741239827 114.498166735766 128.6487796274854 163.3598114916116 153.3482258742665 180.5262888500598 167.6162768625179 162.8729419074247 3:0.047619 48:0.047619 50:0.047619 104:0.047619 186:0.047619 311:0.047619 317:0.047619 343:0.047619 373:0.047619 388:0.047619 433:0.142857 439:0.095238 517:0.047619 528:0.047619 534:0.047619 551:0.047619 555:0.047619 575:0.047619 
-0 0 0 0 0 0 0 0 0 122.0167819097195 0 0 0 0 0 0 0 0 8:0.04 11:0.04 22:0.04 143:0.04 147:0.04 158:0.04 175:0.08 218:0.04 222:0.04 256:0.04 267:0.04 311:0.04 340:0.04 345:0.04 375:0.04 388:0.04 435:0.04 517:0.04 528:0.04 541:0.04 546:0.08 561:0.04 595:0.04 
-0 127.1434655753856 93.8551484589143 144.6333543825015 0 117.9017732122496 0 0 0 0 0 0 0 0 0 0 167.6162768625179 162.8729419074247 9:0.035714 11:0.035714 22:0.035714 97:0.035714 219:0.035714 238:0.035714 260:0.035714 311:0.035714 312:0.071429 345:0.035714 378:0.035714 385:0.035714 387:0.035714 388:0.035714 396:0.035714 419:0.035714 429:0.035714 433:0.035714 435:0.035714 442:0.035714 463:0.035714 480:0.035714 517:0.035714 528:0.035714 541:0.035714 558:0.035714 595:0.035714 
-160.1605307749219 127.1434655753856 93.8551484589143 144.6333543825015 155.9173723841984 117.9017732122496 129.7549367069028 161.3496376724482 140.5244660356814 122.0167819097195 162.0634741239827 114.498166735766 128.6487796274854 163.3598114916116 153.3482258742665 180.5262888500598 167.6162768625179 162.8729419074247 7:0.05 33:0.05 104:0.05 123:0.05 141:0.05 147:0.05 222:0.05 267:0.05 311:0.05 323:0.05 340:0.05 345:0.05 388:0.05 420:0.05 435:0.05 471:0.05 509:0.1 561:0.05 586:0.05 
-160.1605307749219 127.1434655753856 93.8551484589143 144.6333543825015 155.9173723841984 117.9017732122496 129.7549367069028 161.3496376724482 140.5244660356814 122.0167819097195 0 114.498166735766 0 163.3598114916116 153.3482258742665 180.5262888500598 167.6162768625179 162.8729419074247 3:0.041667 11:0.041667 25:0.041667 50:0.041667 103:0.041667 104:0.041667 141:0.041667 219:0.041667 311:0.041667 317:0.041667 343:0.041667 373:0.041667 374:0.041667 385:0.041667 388:0.041667 410:0.041667 433:0.125 439:0.083333 517:0.041667 551:0.041667 575:0.041667 
-0 0 93.8551484589143 144.6333543825015 0 0 129.7549367069028 161.3496376724482 0 0 0 0 128.6487796274854 0 153.3482258742665 0 0 0 25:0.058824 186:0.058824 219:0.058824 222:0.058824 311:0.058824 340:0.058824 343:0.058824 345:0.058824 368:0.117647 371:0.058824 381:0.058824 388:0.058824 396:0.058824 444:0.058824 561:0.058824 573:0.058824 
-0 31.78586639384639 93.8551484589143 144.6333543825015 0 0 0 0 0 0 0 0 0 0 0 0 0 0 9:0.035714 11:0.035714 22:0.035714 97:0.035714 219:0.035714 238:0.035714 260:0.035714 311:0.035714 312:0.071429 345:0.035714 378:0.035714 385:0.035714 387:0.035714 388:0.035714 396:0.035714 419:0.035714 429:0.035714 433:0.035714 435:0.035714 442:0.035714 463:0.035714 480:0.035714 517:0.035714 528:0.035714 541:0.035714 558:0.035714 595:0.035714 
-0 127.1434655753856 93.8551484589143 144.6333543825015 0 117.9017732122496 129.7549367069028 0 0 0 162.0634741239827 114.498166735766 128.6487796274854 163.3598114916116 0 0 167.6162768625179 162.8729419074247 3:0.038462 211:0.038462 219:0.038462 222:0.038462 256:0.038462 301:0.038462 311:0.038462 327:0.038462 343:0.038462 374:0.038462 375:0.038462 388:0.038462 410:0.038462 433:0.115385 435:0.038462 439:0.076923 506:0.038462 512:0.038462 517:0.038462 528:0.038462 532:0.038462 575:0.038462 595:0.038462 
-160.1605307749219 127.1434655753856 93.8551484589143 144.6333543825015 155.9173723841984 117.9017732122496 129.7549367069028 161.3496376724482 140.5244660356814 122.0167819097195 162.0634741239827 114.498166735766 128.6487796274854 163.3598114916116 153.3482258742665 180.5262888500598 167.6162768625179 162.8729419074247 9:0.05 219:0.05 238:0.05 260:0.05 312:0.1 345:0.05 355:0.05 385:0.05 387:0.05 388:0.05 396:0.05 419:0.05 433:0.05 442:0.1 480:0.05 489:0.05 558:0.05 567:0.05 
-0 0 93.8551484589143 0 0 88.42632990918722 0 0 140.5244660356814 0 0 0 0 0 0 0 0 0 3:0.045455 11:0.045455 50:0.045455 104:0.045455 141:0.045455 219:0.045455 311:0.045455 317:0.045455 343:0.045455 373:0.045455 385:0.045455 388:0.045455 410:0.045455 433:0.136364 439:0.090909 517:0.045455 534:0.045455 551:0.045455 575:0.045455 
-0 127.1434655753856 93.8551484589143 144.6333543825015 0 117.9017732122496 129.7549367069028 121.0122282543362 140.5244660356814 122.0167819097195 162.0634741239827 114.498166735766 128.6487796274854 163.3598114916116 0 180.5262888500598 0 162.8729419074247 22:0.04 25:0.04 40:0.04 111:0.08 165:0.04 219:0.04 222:0.04 256:0.04 311:0.04 340:0.04 343:0.04 388:0.04 404:0.04 435:0.04 444:0.04 450:0.04 517:0.08 527:0.04 528:0.04 541:0.04 573:0.04 592:0.04 595:0.04 
-160.1605307749219 127.1434655753856 93.8551484589143 0 155.9173723841984 117.9017732122496 129.7549367069028 161.3496376724482 140.5244660356814 122.0167819097195 162.0634741239827 114.498166735766 128.6487796274854 163.3598114916116 153.3482258742665 180.5262888500598 167.6162768625179 162.8729419074247 22:0.047619 38:0.047619 191:0.047619 194:0.047619 211:0.047619 219:0.047619 222:0.047619 256:0.047619 311:0.047619 343:0.047619 374:0.047619 375:0.047619 388:0.047619 506:0.047619 512:0.047619 517:0.095238 534:0.047619 561:0.047619 590:0.047619 595:0.047619 
-160.1605307749219 127.1434655753856 93.8551484589143 144.6333543825015 155.9173723841984 117.9017732122496 129.7549367069028 161.3496376724482 140.5244660356814 122.0167819097195 162.0634741239827 114.498166735766 128.6487796274854 163.3598114916116 153.3482258742665 180.5262888500598 167.6162768625179 162.8729419074247 22:0.038462 25:0.038462 40:0.038462 111:0.076923 165:0.038462 219:0.038462 222:0.038462 256:0.038462 311:0.038462 340:0.038462 343:0.038462 388:0.038462 404:0.038462 429:0.038462 435:0.038462 444:0.038462 450:0.038462 517:0.076923 527:0.038462 528:0.038462 541:0.038462 573:0.038462 592:0.038462 595:0.038462 
-160.1605307749219 127.1434655753856 93.8551484589143 144.6333543825015 155.9173723841984 117.9017732122496 129.7549367069028 161.3496376724482 140.5244660356814 122.0167819097195 162.0634741239827 114.498166735766 128.6487796274854 163.3598114916116 153.3482258742665 180.5262888500598 167.6162768625179 162.8729419074247 11:0.037037 29:0.037037 50:0.037037 97:0.074074 135:0.037037 219:0.074074 222:0.037037 224:0.037037 286:0.037037 299:0.037037 301:0.037037 308:0.037037 311:0.074074 349:0.037037 370:0.037037 388:0.037037 393:0.037037 399:0.037037 404:0.037037 433:0.037037 435:0.037037 442:0.037037 480:0.037037 517:0.037037 
-0 127.1434655753856 93.8551484589143 144.6333543825015 155.9173723841984 117.9017732122496 129.7549367069028 0 140.5244660356814 122.0167819097195 162.0634741239827 114.498166735766 128.6487796274854 0 153.3482258742665 180.5262888500598 0 162.8729419074247 11:0.041667 50:0.041667 103:0.041667 143:0.041667 163:0.041667 193:0.083333 256:0.041667 260:0.041667 311:0.041667 345:0.041667 385:0.083333 387:0.041667 388:0.041667 410:0.041667 419:0.041667 433:0.041667 439:0.041667 442:0.083333 480:0.041667 528:0.041667 595:0.041667 
-160.1605307749219 127.1434655753856 93.8551484589143 144.6333543825015 155.9173723841984 117.9017732122496 129.7549367069028 161.3496376724482 140.5244660356814 122.0167819097195 162.0634741239827 114.498166735766 128.6487796274854 163.3598114916116 153.3482258742665 180.5262888500598 167.6162768625179 162.8729419074247 31:0.052632 71:0.052632 193:0.105263 238:0.052632 260:0.052632 312:0.105263 343:0.052632 345:0.052632 349:0.052632 385:0.052632 387:0.052632 388:0.052632 396:0.052632 419:0.052632 433:0.052632 480:0.052632 535:0.052632 
-160.1605307749219 127.1434655753856 93.8551484589143 0 155.9173723841984 0 129.7549367069028 161.3496376724482 0 0 0 114.498166735766 128.6487796274854 0 0 180.5262888500598 0 0 3:0.037037 11:0.037037 22:0.037037 48:0.037037 50:0.037037 97:0.074074 104:0.037037 135:0.037037 311:0.037037 317:0.037037 343:0.037037 373:0.037037 388:0.037037 433:0.148148 435:0.037037 439:0.074074 517:0.074074 534:0.037037 551:0.037037 575:0.037037 595:0.037037 
-0 0 93.8551484589143 0 155.9173723841984 0 0 0 0 0 0 0 0 0 0 0 0 0 11:0.037037 22:0.037037 50:0.037037 97:0.074074 135:0.037037 158:0.037037 193:0.074074 238:0.037037 260:0.037037 311:0.037037 312:0.074074 345:0.037037 385:0.037037 387:0.037037 388:0.037037 396:0.074074 419:0.037037 433:0.074074 435:0.037037 442:0.037037 480:0.037037 517:0.037037 
-160.1605307749219 127.1434655753856 93.8551484589143 144.6333543825015 155.9173723841984 117.9017732122496 129.7549367069028 161.3496376724482 140.5244660356814 122.0167819097195 162.0634741239827 114.498166735766 128.6487796274854 163.3598114916116 153.3482258742665 180.5262888500598 167.6162768625179 162.8729419074247 29:0.04 65:0.04 143:0.04 147:0.04 186:0.04 222:0.04 238:0.04 256:0.04 267:0.04 309:0.04 340:0.04 343:0.04 345:0.04 368:0.08 388:0.04 396:0.04 444:0.04 490:0.04 493:0.04 528:0.04 546:0.08 561:0.04 595:0.04 
-160.1605307749219 127.1434655753856 93.8551484589143 144.6333543825015 155.9173723841984 117.9017732122496 129.7549367069028 161.3496376724482 140.5244660356814 122.0167819097195 162.0634741239827 114.498166735766 128.6487796274854 163.3598114916116 153.3482258742665 180.5262888500598 167.6162768625179 162.8729419074247 22:0.038462 25:0.038462 40:0.038462 111:0.076923 165:0.038462 219:0.038462 222:0.038462 256:0.038462 311:0.038462 340:0.038462 343:0.038462 388:0.038462 404:0.038462 429:0.038462 435:0.038462 444:0.038462 450:0.038462 517:0.076923 527:0.038462 528:0.038462 541:0.038462 573:0.038462 592:0.038462 595:0.038462 
-160.1605307749219 127.1434655753856 93.8551484589143 144.6333543825015 155.9173723841984 117.9017732122496 129.7549367069028 161.3496376724482 140.5244660356814 122.0167819097195 162.0634741239827 114.498166735766 128.6487796274854 163.3598114916116 153.3482258742665 180.5262888500598 167.6162768625179 162.8729419074247 22:0.034483 24:0.034483 30:0.034483 99:0.034483 130:0.034483 146:0.034483 147:0.034483 165:0.034483 194:0.034483 198:0.034483 218:0.034483 222:0.034483 247:0.034483 267:0.034483 345:0.034483 349:0.068966 392:0.068966 414:0.034483 433:0.034483 435:0.034483 443:0.034483 471:0.034483 500:0.034483 535:0.034483 541:0.034483 561:0.034483 564:0.034483 
-160.1605307749219 127.1434655753856 93.8551484589143 144.6333543825015 155.9173723841984 117.9017732122496 129.7549367069028 161.3496376724482 140.5244660356814 122.0167819097195 162.0634741239827 114.498166735766 128.6487796274854 163.3598114916116 153.3482258742665 180.5262888500598 167.6162768625179 162.8729419074247 9:0.043478 25:0.043478 33:0.043478 111:0.043478 135:0.043478 165:0.043478 219:0.043478 222:0.043478 301:0.043478 311:0.043478 343:0.043478 368:0.086957 388:0.043478 393:0.043478 435:0.043478 444:0.043478 517:0.043478 528:0.043478 546:0.086957 552:0.043478 575:0.043478 
-0 0 93.8551484589143 0 0 0 0 0 0 122.0167819097195 0 0 0 0 0 0 0 0 22:0.041667 143:0.041667 147:0.041667 175:0.083333 218:0.041667 222:0.041667 256:0.041667 267:0.041667 311:0.041667 340:0.041667 345:0.041667 375:0.041667 388:0.041667 404:0.041667 435:0.041667 437:0.041667 517:0.041667 528:0.041667 541:0.041667 546:0.083333 561:0.041667 595:0.041667 
-160.1605307749219 127.1434655753856 93.8551484589143 144.6333543825015 155.9173723841984 117.9017732122496 129.7549367069028 161.3496376724482 140.5244660356814 122.0167819097195 162.0634741239827 114.498166735766 128.6487796274854 163.3598114916116 153.3482258742665 180.5262888500598 167.6162768625179 162.8729419074247 25:0.038462 50:0.038462 186:0.038462 193:0.076923 238:0.038462 256:0.038462 260:0.038462 303:0.038462 312:0.076923 327:0.038462 343:0.038462 345:0.038462 355:0.038462 378:0.038462 385:0.038462 387:0.038462 388:0.038462 396:0.038462 419:0.038462 433:0.038462 442:0.038462 480:0.038462 490:0.038462 493:0.038462 
-160.1605307749219 127.1434655753856 93.8551484589143 144.6333543825015 155.9173723841984 117.9017732122496 129.7549367069028 161.3496376724482 140.5244660356814 122.0167819097195 162.0634741239827 114.498166735766 128.6487796274854 163.3598114916116 153.3482258742665 180.5262888500598 167.6162768625179 162.8729419074247 22:0.045455 38:0.045455 191:0.045455 194:0.045455 211:0.045455 219:0.045455 222:0.045455 256:0.045455 311:0.045455 343:0.045455 351:0.045455 374:0.045455 375:0.045455 388:0.045455 506:0.045455 512:0.045455 517:0.090909 534:0.045455 561:0.045455 590:0.045455 595:0.045455 
-160.1605307749219 0 93.8551484589143 144.6333543825015 155.9173723841984 0 0 0 0 122.0167819097195 0 114.498166735766 0 163.3598114916116 153.3482258742665 0 167.6162768625179 0 11:0.043478 140:0.043478 143:0.043478 147:0.043478 222:0.043478 243:0.043478 256:0.043478 267:0.043478 340:0.086957 345:0.043478 359:0.043478 375:0.043478 378:0.043478 385:0.043478 388:0.043478 404:0.043478 480:0.043478 534:0.043478 546:0.086957 561:0.043478 595:0.043478 
-0 0 0 0 0 0 0 0 140.5244660356814 0 0 0 0 0 0 0 0 0 112:0.058824 193:0.117647 238:0.058824 260:0.058824 312:0.117647 345:0.058824 385:0.058824 387:0.058824 388:0.058824 396:0.058824 419:0.058824 433:0.058824 442:0.117647 480:0.058824 
-0 127.1434655753856 93.8551484589143 144.6333543825015 0 117.9017732122496 0 161.3496376724482 140.5244660356814 122.0167819097195 162.0634741239827 0 128.6487796274854 163.3598114916116 38.33705646856662 0 167.6162768625179 162.8729419074247 8:0.038462 11:0.038462 22:0.038462 143:0.038462 147:0.038462 158:0.038462 175:0.076923 188:0.038462 218:0.038462 222:0.038462 256:0.038462 267:0.038462 311:0.038462 340:0.038462 345:0.038462 375:0.038462 388:0.038462 435:0.038462 517:0.038462 528:0.038462 541:0.038462 546:0.076923 561:0.038462 595:0.038462 
-160.1605307749219 127.1434655753856 93.8551484589143 144.6333543825015 155.9173723841984 117.9017732122496 129.7549367069028 161.3496376724482 140.5244660356814 122.0167819097195 162.0634741239827 114.498166735766 128.6487796274854 163.3598114916116 153.3482258742665 180.5262888500598 167.6162768625179 162.8729419074247 22:0.038462 25:0.038462 40:0.038462 111:0.076923 165:0.038462 219:0.038462 222:0.038462 256:0.038462 311:0.038462 340:0.038462 343:0.038462 388:0.038462 404:0.038462 429:0.038462 435:0.038462 444:0.038462 450:0.038462 517:0.076923 527:0.038462 528:0.038462 541:0.038462 573:0.038462 592:0.038462 595:0.038462 
-0 127.1434655753856 93.8551484589143 144.6333543825015 0 117.9017732122496 0 161.3496376724482 140.5244660356814 122.0167819097195 0 0 0 163.3598114916116 0 0 167.6162768625179 162.8729419074247 8:0.038462 11:0.038462 22:0.038462 143:0.038462 147:0.038462 158:0.038462 175:0.076923 188:0.038462 218:0.038462 222:0.038462 256:0.038462 267:0.038462 311:0.038462 340:0.038462 345:0.038462 375:0.038462 388:0.038462 435:0.038462 517:0.038462 528:0.038462 541:0.038462 546:0.076923 561:0.038462 595:0.038462 
-0 0 0 144.6333543825015 0 0 0 0 0 0 162.0634741239827 0 128.6487796274854 0 153.3482258742665 180.5262888500598 167.6162768625179 0 9:0.052632 28:0.052632 219:0.052632 238:0.052632 260:0.052632 311:0.052632 312:0.105263 345:0.052632 378:0.052632 385:0.052632 387:0.052632 388:0.052632 396:0.052632 419:0.052632 433:0.052632 463:0.052632 480:0.052632 558:0.052632 
-0 0 93.8551484589143 0 0 0 0 0 0 0 0 0 0 0 0 0 0 0 11:0.037037 22:0.037037 50:0.037037 97:0.074074 135:0.037037 158:0.037037 193:0.074074 238:0.037037 260:0.037037 311:0.037037 312:0.074074 345:0.037037 385:0.037037 387:0.037037 388:0.037037 396:0.074074 419:0.037037 433:0.074074 435:0.037037 442:0.037037 480:0.037037 517:0.037037 
-160.1605307749219 127.1434655753856 93.8551484589143 144.6333543825015 155.9173723841984 117.9017732122496 129.7549367069028 161.3496376724482 140.5244660356814 122.0167819097195 162.0634741239827 114.498166735766 128.6487796274854 163.3598114916116 153.3482258742665 180.5262888500598 167.6162768625179 162.8729419074247 22:0.038462 25:0.038462 40:0.038462 111:0.076923 165:0.038462 219:0.038462 222:0.038462 256:0.038462 311:0.038462 340:0.038462 343:0.038462 388:0.038462 404:0.038462 429:0.038462 435:0.038462 444:0.038462 450:0.038462 517:0.076923 527:0.038462 528:0.038462 541:0.038462 573:0.038462 592:0.038462 595:0.038462 
-160.1605307749219 127.1434655753856 93.8551484589143 144.6333543825015 155.9173723841984 0 0 0 0 0 162.0634741239827 114.498166735766 128.6487796274854 163.3598114916116 153.3482258742665 180.5262888500598 167.6162768625179 162.8729419074247 11:0.05 135:0.05 140:0.05 147:0.05 219:0.05 222:0.05 243:0.05 311:0.05 340:0.05 345:0.05 375:0.05 378:0.05 385:0.05 388:0.05 404:0.05 429:0.05 480:0.05 534:0.05 573:0.05 595:0.05 
-160.1605307749219 0 93.8551484589143 144.6333543825015 0 117.9017732122496 129.7549367069028 0 0 0 0 114.498166735766 128.6487796274854 0 153.3482258742665 0 167.6162768625179 0 7:0.052632 33:0.052632 104:0.052632 123:0.052632 141:0.052632 147:0.052632 222:0.052632 267:0.052632 311:0.052632 323:0.052632 340:0.052632 345:0.052632 388:0.052632 435:0.052632 471:0.052632 509:0.052632 561:0.052632 586:0.052632 592:0.052632 
-160.1605307749219 127.1434655753856 93.8551484589143 144.6333543825015 155.9173723841984 117.9017732122496 129.7549367069028 161.3496376724482 140.5244660356814 122.0167819097195 162.0634741239827 114.498166735766 128.6487796274854 163.3598114916116 153.3482258742665 180.5262888500598 167.6162768625179 162.8729419074247 9:0.034483 22:0.034483 50:0.034483 111:0.034483 124:0.034483 191:0.034483 203:0.034483 219:0.034483 260:0.034483 288:0.034483 301:0.034483 302:0.034483 311:0.034483 343:0.068966 345:0.034483 347:0.034483 370:0.034483 378:0.034483 387:0.034483 388:0.034483 396:0.034483 399:0.034483 433:0.034483 442:0.034483 444:0.034483 517:0.034483 558:0.034483 594:0.034483 
-0 0 70.39136134418573 0 155.9173723841984 0 0 0 0 0 0 0 0 0 0 0 0 0 50:0.04 97:0.08 135:0.04 193:0.08 238:0.04 260:0.04 311:0.04 312:0.08 345:0.04 385:0.04 387:0.04 388:0.04 396:0.08 419:0.04 433:0.08 435:0.04 442:0.04 480:0.04 528:0.04 595:0.04 
-0 0 0 144.6333543825015 0 117.9017732122496 0 161.3496376724482 140.5244660356814 122.0167819097195 162.0634741239827 0 128.6487796274854 163.3598114916116 0 180.5262888500598 0 0 15:0.047619 31:0.047619 50:0.047619 193:0.095238 238:0.047619 260:0.047619 311:0.047619 312:0.095238 345:0.047619 385:0.047619 387:0.047619 388:0.047619 396:0.047619 419:0.047619 426:0.047619 433:0.047619 442:0.095238 480:0.047619 
-0 0 93.8551484589143 0 0 0 0 0 0 0 0 0 0 0 0 0 0 0 11:0.04 22:0.04 65:0.04 143:0.04 147:0.04 186:0.04 222:0.04 256:0.04 267:0.04 311:0.04 340:0.04 345:0.04 375:0.04 388:0.04 404:0.04 435:0.08 517:0.04 528:0.04 541:0.04 546:0.08 555:0.04 561:0.04 595:0.04 
-160.1605307749219 127.1434655753856 93.8551484589143 0 155.9173723841984 0 129.7549367069028 161.3496376724482 0 0 0 114.498166735766 32.16219490687136 0 0 0 0 0 3:0.037037 11:0.037037 22:0.037037 48:0.037037 50:0.037037 97:0.074074 104:0.037037 135:0.037037 311:0.037037 317:0.037037 343:0.037037 373:0.037037 388:0.037037 433:0.148148 435:0.037037 439:0.074074 517:0.074074 534:0.037037 551:0.037037 575:0.037037 595:0.037037 
-0 127.1434655753856 0 0 155.9173723841984 117.9017732122496 129.7549367069028 0 140.5244660356814 0 162.0634741239827 114.498166735766 0 0 153.3482258742665 180.5262888500598 0 162.8729419074247 11:0.041667 50:0.041667 103:0.041667 143:0.041667 163:0.041667 193:0.083333 256:0.041667 260:0.041667 311:0.041667 345:0.041667 385:0.083333 387:0.041667 388:0.041667 410:0.041667 419:0.041667 433:0.041667 439:0.041667 442:0.083333 480:0.041667 528:0.041667 595:0.041667 
-0 127.1434655753856 93.8551484589143 144.6333543825015 155.9173723841984 0 129.7549367069028 161.3496376724482 140.5244660356814 0 162.0634741239827 0 0 0 153.3482258742665 0 0 0 11:0.043478 22:0.043478 25:0.043478 97:0.043478 188:0.043478 222:0.043478 238:0.043478 308:0.043478 311:0.043478 340:0.043478 343:0.043478 345:0.043478 368:0.043478 388:0.043478 396:0.043478 429:0.043478 435:0.043478 444:0.043478 517:0.043478 541:0.043478 561:0.043478 573:0.043478 595:0.043478 
-160.1605307749219 127.1434655753856 93.8551484589143 144.6333543825015 0 117.9017732122496 129.7549367069028 0 0 0 0 114.498166735766 0 0 0 180.5262888500598 167.6162768625179 0 9:0.04 11:0.04 135:0.04 191:0.04 219:0.04 238:0.04 260:0.04 311:0.04 312:0.08 345:0.04 378:0.08 385:0.08 387:0.04 388:0.04 396:0.04 419:0.04 433:0.04 442:0.04 463:0.04 480:0.08 558:0.04 
-160.1605307749219 127.1434655753856 93.8551484589143 144.6333543825015 155.9173723841984 117.9017732122496 129.7549367069028 161.3496376724482 140.5244660356814 122.0167819097195 162.0634741239827 114.498166735766 128.6487796274854 163.3598114916116 153.3482258742665 180.5262888500598 167.6162768625179 162.8729419074247 11:0.055556 25:0.055556 50:0.055556 103:0.055556 135:0.055556 143:0.055556 256:0.055556 311:0.055556 317:0.055556 355:0.055556 373:0.055556 374:0.055556 388:0.055556 517:0.055556 546:0.111111 567:0.055556 575:0.055556 
-160.1605307749219 127.1434655753856 93.8551484589143 0 155.9173723841984 0 129.7549367069028 161.3496376724482 140.5244660356814 122.0167819097195 162.0634741239827 114.498166735766 128.6487796274854 163.3598114916116 0 180.5262888500598 167.6162768625179 162.8729419074247 31:0.047619 50:0.047619 71:0.047619 193:0.095238 238:0.047619 260:0.047619 311:0.047619 312:0.095238 343:0.047619 345:0.047619 349:0.047619 385:0.047619 387:0.047619 388:0.047619 396:0.047619 419:0.047619 433:0.047619 480:0.047619 535:0.047619 
-160.1605307749219 127.1434655753856 93.8551484589143 144.6333543825015 155.9173723841984 117.9017732122496 129.7549367069028 161.3496376724482 140.5244660356814 122.0167819097195 162.0634741239827 114.498166735766 128.6487796274854 163.3598114916116 153.3482258742665 180.5262888500598 167.6162768625179 162.8729419074247 11:0.037037 22:0.037037 28:0.037037 43:0.037037 50:0.037037 97:0.037037 147:0.037037 193:0.074074 238:0.037037 260:0.037037 310:0.037037 311:0.037037 312:0.074074 345:0.037037 385:0.037037 387:0.037037 388:0.037037 396:0.037037 419:0.037037 433:0.037037 435:0.037037 442:0.037037 445:0.037037 480:0.037037 517:0.037037 
-160.1605307749219 127.1434655753856 93.8551484589143 144.6333543825015 155.9173723841984 117.9017732122496 129.7549367069028 161.3496376724482 140.5244660356814 122.0167819097195 162.0634741239827 114.498166735766 128.6487796274854 163.3598114916116 153.3482258742665 180.5262888500598 167.6162768625179 162.8729419074247 65:0.05 186:0.05 211:0.05 222:0.05 223:0.05 256:0.05 301:0.05 313:0.05 343:0.05 371:0.05 374:0.05 388:0.05 396:0.05 455:0.05 464:0.1 506:0.05 512:0.05 517:0.05 561:0.05 
-0 127.1434655753856 93.8551484589143 144.6333543825015 0 117.9017732122496 129.7549367069028 161.3496376724482 140.5244660356814 122.0167819097195 162.0634741239827 114.498166735766 128.6487796274854 163.3598114916116 0 180.5262888500598 167.6162768625179 162.8729419074247 11:0.052632 65:0.052632 130:0.052632 147:0.052632 186:0.052632 219:0.052632 222:0.052632 243:0.052632 311:0.052632 340:0.052632 345:0.052632 375:0.052632 378:0.052632 385:0.052632 388:0.052632 404:0.052632 480:0.052632 573:0.052632 595:0.052632 
-160.1605307749219 127.1434655753856 93.8551484589143 144.6333543825015 155.9173723841984 117.9017732122496 129.7549367069028 161.3496376724482 140.5244660356814 122.0167819097195 162.0634741239827 114.498166735766 128.6487796274854 163.3598114916116 153.3482258742665 180.5262888500598 167.6162768625179 162.8729419074247 25:0.052632 178:0.052632 222:0.052632 230:0.052632 311:0.052632 340:0.052632 343:0.052632 345:0.052632 368:0.105263 371:0.052632 388:0.052632 433:0.052632 444:0.052632 528:0.052632 534:0.052632 555:0.052632 561:0.052632 573:0.052632 
-160.1605307749219 127.1434655753856 93.8551484589143 144.6333543825015 155.9173723841984 117.9017732122496 129.7549367069028 161.3496376724482 140.5244660356814 122.0167819097195 162.0634741239827 114.498166735766 128.6487796274854 163.3598114916116 153.3482258742665 180.5262888500598 167.6162768625179 162.8729419074247 7:0.052632 33:0.052632 104:0.052632 123:0.052632 141:0.052632 147:0.052632 222:0.052632 267:0.052632 311:0.052632 323:0.052632 340:0.052632 345:0.052632 388:0.052632 420:0.052632 471:0.052632 509:0.052632 561:0.052632 586:0.052632 592:0.052632 
-160.1605307749219 127.1434655753856 93.8551484589143 144.6333543825015 155.9173723841984 117.9017732122496 0 161.3496376724482 140.5244660356814 122.0167819097195 0 114.498166735766 128.6487796274854 0 153.3482258742665 180.5262888500598 167.6162768625179 162.8729419074247 25:0.055556 85:0.055556 87:0.055556 219:0.055556 222:0.055556 303:0.055556 311:0.055556 340:0.055556 343:0.055556 345:0.055556 368:0.055556 371:0.055556 388:0.055556 396:0.055556 426:0.055556 534:0.055556 561:0.055556 573:0.055556 
-0 127.1434655753856 93.8551484589143 0 0 117.9017732122496 129.7549367069028 0 140.5244660356814 122.0167819097195 0 114.498166735766 128.6487796274854 0 153.3482258742665 180.5262888500598 167.6162768625179 0 22:0.052632 38:0.052632 191:0.052632 194:0.052632 211:0.052632 219:0.052632 222:0.052632 256:0.052632 311:0.052632 374:0.052632 375:0.052632 388:0.052632 506:0.052632 512:0.052632 517:0.105263 561:0.052632 590:0.052632 595:0.052632 
-0 0 0 0 0 0 0 0 70.26223301784069 0 0 0 0 0 0 0 0 0 3:0.045455 11:0.045455 50:0.045455 104:0.045455 141:0.045455 219:0.045455 311:0.045455 317:0.045455 343:0.045455 373:0.045455 385:0.045455 388:0.045455 410:0.045455 433:0.136364 439:0.090909 517:0.045455 534:0.045455 551:0.045455 575:0.045455 
-160.1605307749219 127.1434655753856 93.8551484589143 144.6333543825015 155.9173723841984 117.9017732122496 129.7549367069028 161.3496376724482 140.5244660356814 122.0167819097195 162.0634741239827 114.498166735766 128.6487796274854 163.3598114916116 153.3482258742665 180.5262888500598 167.6162768625179 162.8729419074247 11:0.032258 12:0.032258 22:0.032258 24:0.032258 30:0.032258 99:0.032258 130:0.032258 146:0.032258 147:0.032258 165:0.032258 194:0.032258 198:0.032258 218:0.032258 222:0.032258 247:0.032258 267:0.032258 345:0.032258 349:0.064516 392:0.064516 414:0.032258 435:0.032258 443:0.032258 471:0.032258 500:0.032258 517:0.032258 535:0.032258 541:0.032258 561:0.032258 564:0.032258 
-160.1605307749219 0 93.8551484589143 0 0 0 129.7549367069028 0 0 0 40.51586853099568 114.498166735766 0 0 153.3482258742665 0 167.6162768625179 0 3:0.047619 48:0.047619 50:0.047619 104:0.047619 311:0.047619 317:0.047619 343:0.047619 373:0.047619 388:0.047619 433:0.142857 439:0.095238 490:0.047619 517:0.047619 528:0.047619 534:0.047619 551:0.047619 555:0.047619 575:0.047619 
-160.1605307749219 127.1434655753856 93.8551484589143 144.6333543825015 0 0 129.7549367069028 161.3496376724482 0 122.0167819097195 162.0634741239827 114.498166735766 128.6487796274854 0 0 180.5262888500598 167.6162768625179 162.8729419074247 3:0.04 11:0.04 25:0.04 50:0.04 104:0.04 141:0.04 219:0.04 311:0.04 317:0.04 343:0.04 373:0.04 374:0.04 385:0.04 388:0.04 410:0.04 433:0.12 439:0.08 493:0.04 514:0.04 517:0.04 551:0.04 575:0.04 
-160.1605307749219 0 93.8551484589143 0 155.9173723841984 0 0 0 0 0 0 114.498166735766 0 0 153.3482258742665 0 0 0 11:0.043478 140:0.043478 143:0.043478 147:0.043478 222:0.043478 243:0.043478 256:0.043478 267:0.043478 340:0.086957 345:0.043478 359:0.043478 375:0.043478 378:0.043478 385:0.043478 388:0.043478 404:0.043478 480:0.043478 534:0.043478 546:0.086957 561:0.043478 595:0.043478 
-160.1605307749219 127.1434655753856 93.8551484589143 144.6333543825015 155.9173723841984 117.9017732122496 129.7549367069028 161.3496376724482 140.5244660356814 122.0167819097195 162.0634741239827 114.498166735766 128.6487796274854 163.3598114916116 153.3482258742665 180.5262888500598 167.6162768625179 162.8729419074247 104:0.058824 141:0.058824 211:0.058824 219:0.058824 222:0.058824 238:0.058824 374:0.058824 375:0.058824 388:0.058824 435:0.058824 490:0.058824 512:0.058824 517:0.058824 528:0.058824 534:0.058824 584:0.058824 596:0.058824 
-0 0 93.8551484589143 0 155.9173723841984 0 0 0 0 0 0 0 0 0 153.3482258742665 180.5262888500598 0 0 11:0.0625 25:0.0625 50:0.0625 103:0.0625 112:0.0625 135:0.0625 143:0.0625 256:0.0625 311:0.0625 317:0.0625 374:0.0625 388:0.0625 517:0.0625 546:0.125 575:0.0625 
-160.1605307749219 127.1434655753856 93.8551484589143 144.6333543825015 155.9173723841984 117.9017732122496 129.7549367069028 161.3496376724482 140.5244660356814 122.0167819097195 162.0634741239827 114.498166735766 128.6487796274854 163.3598114916116 153.3482258742665 180.5262888500598 167.6162768625179 162.8729419074247 9:0.041667 50:0.041667 111:0.041667 146:0.041667 202:0.041667 203:0.041667 219:0.041667 260:0.041667 288:0.041667 301:0.041667 302:0.041667 343:0.041667 345:0.041667 370:0.041667 378:0.041667 387:0.041667 388:0.041667 396:0.041667 399:0.041667 433:0.041667 442:0.041667 444:0.041667 558:0.041667 594:0.041667 
-160.1605307749219 127.1434655753856 93.8551484589143 144.6333543825015 155.9173723841984 117.9017732122496 129.7549367069028 161.3496376724482 140.5244660356814 122.0167819097195 162.0634741239827 114.498166735766 128.6487796274854 163.3598114916116 153.3482258742665 180.5262888500598 167.6162768625179 162.8729419074247 11:0.032258 12:0.032258 22:0.032258 24:0.032258 30:0.032258 99:0.032258 130:0.032258 146:0.032258 147:0.032258 165:0.032258 194:0.032258 198:0.032258 218:0.032258 222:0.032258 247:0.032258 267:0.032258 345:0.032258 349:0.064516 392:0.064516 414:0.032258 435:0.032258 443:0.032258 471:0.032258 500:0.032258 517:0.032258 535:0.032258 541:0.032258 561:0.032258 564:0.032258 
